%YAML:1.0
---
opencv_ml_ann_mlp:
   format: 3
   layer_sizes: [ 16, 200, 5 ]
   activation_function: SIGMOID_SYM
   f_param1: 6.6666666666666663e-01
   f_param2: 1.7159000000000000e+00
   min_val: -9.4999999999999996e-01
   max_val: 9.4999999999999996e-01
   min_val1: -9.7999999999999998e-01
   max_val1: 9.7999999999999998e-01
   training_params:
      train_method: BACKPROP
      dw_scale: 1.0000000000000000e-03
      moment_scale: 0.
      term_criteria:
         epsilon: 0.
         iterations: 10000
   input_scale:
      - 8.8163264924015342e-02
      - -6.8636361218559150e-01
      - 9.0232427057462219e-02
      - -7.7986597671092339e-01
      - 7.7127059412121127e-02
      - -5.8422645689547292e-01
      - 1.2318036251387525e-01
      - -8.8682822132132244e-01
      - 8.4602452308301629e-02
      - -8.4423578551992651e-01
      - 1.4767350472391286e-01
      - -3.4099921862247534e-01
      - 9.9703722578515439e-02
      - -9.0861426724695105e-01
      - 1.4002225119168532e-01
      - -2.7732407007450360e-01
      - 9.9687281361071786e-02
      - -6.4221394860841330e-01
      - 1.0484047571963202e-01
      - -3.2943872913271799e-01
      - 8.5429107829241041e-02
      - -7.8155429505494223e-01
      - 1.1457565841571617e-01
      - -2.8473687911425694e-01
      - 1.0379886232359097e-01
      - -8.3056883949556815e-01
      - 1.2364244366874552e-01
      - -2.4664901191290892e-01
      - 1.1586133630052989e-01
      - -8.1381002617492193e-01
      - 9.6113464001384208e-02
      - -6.8982006163279175e-01
   output_scale:
      - 5.2631578947368418e-01
      - 4.9999999999999994e-01
      - 5.2631578947368418e-01
      - 4.9999999999999994e-01
      - 5.2631578947368418e-01
      - 4.9999999999999994e-01
      - 5.2631578947368418e-01
      - 4.9999999999999994e-01
      - 5.2631578947368418e-01
      - 4.9999999999999994e-01
   inv_output_scale:
      - 1.8999999999999999e+00
      - -9.4999999999999996e-01
      - 1.8999999999999999e+00
      - -9.4999999999999996e-01
      - 1.8999999999999999e+00
      - -9.4999999999999996e-01
      - 1.8999999999999999e+00
      - -9.4999999999999996e-01
      - 1.8999999999999999e+00
      - -9.4999999999999996e-01
   weights:
      -
         - -9.9409217804665562e-01
         - 1.1332962873247314e+00
         - 1.5557410670507614e+00
         - 1.4873074488511489e+00
         - 3.2111056714519881e-01
         - 3.8867696859605960e-01
         - 6.5022144750667629e-02
         - 6.8298716875418153e-01
         - -1.5251258921139028e+00
         - 7.0107822975502909e-01
         - -8.6509514375853053e-02
         - 1.0830319119219899e-01
         - -2.8652591296464014e-01
         - 8.2313876826891064e-01
         - 4.5513792399642017e-01
         - -3.3500354183119058e-01
         - 7.9083074422594757e-01
         - -2.1236301612628745e+00
         - 1.2198376509450588e-01
         - 1.6240304095408753e+00
         - -1.1787745096857190e+00
         - -1.4083354825679026e+00
         - 4.8480520727633071e-02
         - -5.2842599468879747e-01
         - -1.0554887656167015e-01
         - -2.8354536075041105e-02
         - -2.3281257742699859e+00
         - -2.0570427869499812e+00
         - 9.0154823447594443e-02
         - 3.0344097872080353e-02
         - 1.2903650675685571e-01
         - -6.3688474094217129e-01
         - -6.1093912247560977e-01
         - -4.9240470081327925e-01
         - 6.2481857599673334e-02
         - -4.1114123896401344e-01
         - 7.8791853133774314e-01
         - -6.7963873616408088e-01
         - -8.4137015987599895e-01
         - 2.1338774694384369e-01
         - -6.5964608964979743e-01
         - -9.4842808891169292e-02
         - -3.1761033721690013e-01
         - 2.4875505977147472e-01
         - 1.4234484664661895e-01
         - 1.3931726763345567e+00
         - -4.7413746629066028e-01
         - 1.6254000667368640e-01
         - -2.0453405571441674e-01
         - -3.7671419078346235e-01
         - -2.3401629895652726e-02
         - -1.5766456693496731e+00
         - -4.6730669231723376e-01
         - 8.5993514434249529e-01
         - 3.3519029316734567e-01
         - -1.1222543730540377e+00
         - -3.8365299639684469e-01
         - 4.8009464581872130e-01
         - 1.0799301681778961e+00
         - -1.4422536915030080e+00
         - -4.8624529196407279e-01
         - 1.0563754061981900e-01
         - 2.6479304974939061e-01
         - -1.2811166143513057e+00
         - -1.3263186762757981e+00
         - 1.3641371166863238e-02
         - -4.1412302294475384e-01
         - 1.2600407539900932e-01
         - 1.5571910757605409e-01
         - -2.6681062634177799e-01
         - 7.2372073355819444e-01
         - 4.1369250252411960e-01
         - -5.1760675849648696e-01
         - -4.8868439564257427e-01
         - 4.2329535554607528e-01
         - 5.0757854590314504e-02
         - -1.0763161167910211e+00
         - -9.3689905002556181e-02
         - -3.2986706688357043e-01
         - -5.3187511593231131e-02
         - -1.4904127590296055e+00
         - 1.5551150006730047e-01
         - -8.8518422913662309e-01
         - 1.0626695386576959e-01
         - -1.0297034338270471e-01
         - 2.8399739233035426e-01
         - 8.8339990482959596e-01
         - -1.4715089886551172e-01
         - -1.8687108566347238e-01
         - -4.7420154714490526e-01
         - 2.2128999668401247e-01
         - 1.5861075686909833e+00
         - 2.4048901459186762e+00
         - 1.0986854099162667e-01
         - 3.3313798738054640e-01
         - 5.3673103687232149e-01
         - -1.3414090519753452e+00
         - 6.0407228984795683e-02
         - 2.6076428658201212e-01
         - -7.8993821338892967e-01
         - 1.5881391616506260e+00
         - -1.5082472118360632e-01
         - -2.0107880521134933e+00
         - -1.1905971469387315e+00
         - 5.1363288698738774e-01
         - 2.6117561300885841e+00
         - -4.2825742500248626e-01
         - 1.2499200716603430e-01
         - -1.1268083341961764e-01
         - 1.3101859114607404e+00
         - -3.6296041732683970e-01
         - 9.9763850819437463e-02
         - -4.1765617619148576e-01
         - -1.6337362613708257e+00
         - -1.7386328628847444e-01
         - -9.9754447709387184e-02
         - 6.8196922674528718e-02
         - -1.3117054944188616e-01
         - -1.3980806382341318e+00
         - -1.3574952017073377e-01
         - -3.3396509538475461e-01
         - -6.4568459092202740e-02
         - 2.9590828406249026e-01
         - 5.9245367440506881e-02
         - 6.9704071420056524e-02
         - 9.1789853490157935e-01
         - -1.4486215830929137e+00
         - 2.2462295426490400e-01
         - -8.1999698515472697e-01
         - -2.3465742267546341e-01
         - -7.0662805164199954e-02
         - -1.9463849762007046e+00
         - 5.6401018411877646e-01
         - -3.5121038615619207e+00
         - 1.5800021006799270e-01
         - 3.8027702152703585e-01
         - 2.9921115239551033e-01
         - -5.1040188525738805e-01
         - 6.9857668184367150e-01
         - 9.5585150776165195e-02
         - 5.5059392972075780e-02
         - -3.4028522101707931e-01
         - 4.9537240480198967e-02
         - 1.4821989742826454e+00
         - 3.4405634119845499e-02
         - -2.4838255506498835e-01
         - -1.2013587713941989e-01
         - 6.4491626495078525e-01
         - 4.5071480127625548e-03
         - -5.5427849539910612e-01
         - -1.2684577080850840e-01
         - -5.2572355337070753e-01
         - 4.2796488059453436e-01
         - 8.6187648740856848e-01
         - -2.0422463446200645e+00
         - -5.3626743154596357e-01
         - 2.5395458533075466e-01
         - -9.7460140034836962e-01
         - -1.4035806931751310e-01
         - -2.8648284063324542e-01
         - -6.1398104146937660e-01
         - 1.7200288706944045e+00
         - 3.0645525894322079e-01
         - 5.0534895984605761e-02
         - -2.4146487291292312e-01
         - -1.7437094439881112e-01
         - 1.8056055400185427e+00
         - -1.7866168999493353e+00
         - 1.2336989062532766e+00
         - 1.6292530456057348e+00
         - 3.4885142286119852e-01
         - 9.3593342498016888e-02
         - -1.4244544227560454e-01
         - 1.2659658544465618e-01
         - 3.9732263791156408e-01
         - -1.7871316336787302e-01
         - -2.6832194885270272e-01
         - 1.9803214460097401e-01
         - 5.8413568970606800e-01
         - -2.0191260356972998e-01
         - -1.3160135154730421e+00
         - -9.5084442153629836e-02
         - -1.1112115457146874e+00
         - -6.1547206748115890e-01
         - 8.0642903119464859e-01
         - -4.2228395096197413e-01
         - -2.6708878197172741e+00
         - 5.4997961570857323e-01
         - -3.0889899412075217e-01
         - 4.2691410885716502e-01
         - -7.4307930200979044e-01
         - -3.6667833605445989e-02
         - 1.2959132676962824e-02
         - -3.0573812698980046e-01
         - 3.9973983629589849e-01
         - 2.6536237685816627e-01
         - -4.6420993056900423e-02
         - -2.6523781727373374e-01
         - 8.7918205740252620e-01
         - -6.0278720972296767e-03
         - -6.4297388167004610e-01
         - 1.4985931739678968e-01
         - -2.0956767048609579e-01
         - -1.1694444338305079e+00
         - 1.9038838694232538e-01
         - 2.3638278255337224e+00
         - -4.0901036944360772e-02
         - 1.4650176376192143e+00
         - 2.1442527510800455e+00
         - 4.7525939136398265e-01
         - 8.9314226853700007e-01
         - -6.1453490534622446e-01
         - -3.5039009603995519e-01
         - 7.2796340334017351e-01
         - 1.9555074965142091e-01
         - 4.1981670065554794e-01
         - -2.2673287130324136e+00
         - 1.2015600760617642e+00
         - 8.8525408143863962e-02
         - -2.0586954951501841e+00
         - -1.1957928223312737e+00
         - -1.9027652314368031e+00
         - 2.4548400115256969e-01
         - 6.7664168300124020e-02
         - -4.0396533212871355e-01
         - -3.6055394243703226e-01
         - -1.3700831231876394e+00
         - -2.1497889243990556e+00
         - 8.1267262304409182e-01
         - -5.2665181040175058e-01
         - -1.3277673978632061e-02
         - 3.3752053919272629e-01
         - 1.0919100937858240e-02
         - -6.4953172569899714e-02
         - 3.3940816027912024e-01
         - 1.0914847673012353e-01
         - 8.7171862862551130e-01
         - 1.6149064223270899e+00
         - 3.3069769590973425e-01
         - -6.9348994484489679e-01
         - -1.2549611194534356e+00
         - -5.4023545480782975e-01
         - -1.1448254822330033e+00
         - -7.2018742333832719e-01
         - -3.5423976598503137e-01
         - -5.4866391723527275e-01
         - 6.7951556405483482e-01
         - 1.0257819018396375e+00
         - -9.9061003911881315e-02
         - -1.1418055426838407e+00
         - 4.9359221713414131e-01
         - 8.8903316496701867e-01
         - 7.8647151270830229e-01
         - 3.6884878761620432e-01
         - -1.0087845014394481e+00
         - 2.5964367041771679e+00
         - -1.6843329385964034e-01
         - 5.2720350700386087e-01
         - 2.1142356698590690e+00
         - -2.6301499553787699e-01
         - 1.0405126206742026e+00
         - 6.3633197344815740e-01
         - 1.5156474979897738e-01
         - -1.2189201668090257e+00
         - 1.8696632132318007e+00
         - 1.1059590506740844e+00
         - 1.1582354233129165e-01
         - -8.9237694682267221e-02
         - 2.4933667190868711e-01
         - 1.2482217576672122e-01
         - -8.4518974457023266e-01
         - 5.9938312134897653e-01
         - 3.7762527885495251e-01
         - 4.2799818679334001e-01
         - -1.6285150921153518e-01
         - -7.8335752686687754e-01
         - 2.9844994916227913e-01
         - 5.0018728206017412e-03
         - -5.3167790183163777e-01
         - -1.0673240191117619e-01
         - 1.2881045852534057e+00
         - -1.5804018739824993e-01
         - 1.5516558322984233e+00
         - -6.5729942117363827e-02
         - 2.5086348608454561e+00
         - -6.0949229865943498e-02
         - 1.0294771599884843e-01
         - 8.5196706917784881e-01
         - -1.8401495318486963e-01
         - 7.5504710888714566e-01
         - -2.0469204632599589e-02
         - 3.2605252734343382e-01
         - -1.1672205415775370e+00
         - -1.7303060385805943e-01
         - 2.5590597141393667e-01
         - 3.4409595142686558e-02
         - -1.8785025468953040e-01
         - 8.2730580063669734e-01
         - -1.0142995167237019e+00
         - 1.5661709333474061e+00
         - 4.8601273375299398e-01
         - -1.7967009258310696e+00
         - -1.4530382114081828e+00
         - -4.2153500611265149e-01
         - -3.1668044219571967e-01
         - -8.7352999706101808e-01
         - -1.0522122879927716e+00
         - 9.6806203376128955e-02
         - -2.9446529489922874e-01
         - -2.1397111834769551e+00
         - 3.1476193892265791e-01
         - -1.8741868871549960e-01
         - 5.9813033550914607e-01
         - 2.7441863181193451e+00
         - -6.7057659050849783e-01
         - -7.7483607535012744e-01
         - 1.1615659520453832e-01
         - 4.5072337851065833e-02
         - 5.9563108082862293e-01
         - 1.9659841682194590e-01
         - -8.6392854867151272e-02
         - -3.2526041321095642e-02
         - -3.5102362365020894e-02
         - 6.6876305424407145e-01
         - -2.6318799794832148e-01
         - -2.8778018114997744e-01
         - 6.6739121502600773e-01
         - -2.5056811897154641e-01
         - -1.3936962747468762e-01
         - -3.6629315389405542e-01
         - -4.3701199565703713e-01
         - 8.7913008614717925e-01
         - -3.0218963294903833e-01
         - 1.4318562895638764e+00
         - -3.2965301127361091e-01
         - 2.6714722465274839e-02
         - -2.2794914470992717e-01
         - 1.2516190612907310e+00
         - -5.2019748877515223e-03
         - 5.1318516371559882e-02
         - -4.4760937223735764e-01
         - -1.3795069068068888e+00
         - -1.7747283171648034e-01
         - 9.4327222683782719e-01
         - -2.1796550665058914e-01
         - 8.7033977448311872e-01
         - 2.1965421595380988e-01
         - -1.5783495856799215e+00
         - 2.5110488779482848e-01
         - 2.2504301375546423e-01
         - 1.4929287237146787e+00
         - -9.4125215885828201e-02
         - 6.9671375035757765e-01
         - -1.5531616469470837e+00
         - 1.1787232980463098e-02
         - -2.6457595092539883e+00
         - 1.7474479601124100e+00
         - 4.2682945024332281e-01
         - -1.9828911621142811e+00
         - 5.3014211462919909e-02
         - 5.0552066656527606e-01
         - -9.7104296332817863e-01
         - -9.2518316210004337e-01
         - 2.1895061694344795e+00
         - -1.2361232435698649e-01
         - -9.1640456051483424e-02
         - -9.7795418367812281e-01
         - 7.6491323864499994e-01
         - 2.3797201012616825e-01
         - -8.3059031672214079e-01
         - -4.1523880377541733e-01
         - 8.3465109711240881e-01
         - 8.0250437250615231e-02
         - 3.4861794703590443e-01
         - 1.5902024197696982e-01
         - -1.8971882613457713e-01
         - -1.2583991422682653e-01
         - 1.7980540454669217e-01
         - 8.7035117481731217e-01
         - 9.4770005404383340e-03
         - -6.9620503743252415e-01
         - -3.6757278247777864e-01
         - 3.8959189782657258e+00
         - -9.8825748547343983e-01
         - -1.6284740873637513e-01
         - -9.9053769408582271e-01
         - -1.1903947120066729e+00
         - 1.2456888399291450e+00
         - 2.5551168059041784e-01
         - -1.0357420000516178e-02
         - 8.4754944843668900e-01
         - 3.0836018252974912e-02
         - 4.1993974940696586e-02
         - -2.6900047682831585e-01
         - -2.6309100607243796e-01
         - 2.8312762215523651e-01
         - 7.3439736894291274e-01
         - -3.9975181568091678e-01
         - -2.1932448586545897e-01
         - -8.6796805651116427e-01
         - 1.8037811271162631e-02
         - 1.4147247645651939e-01
         - -2.4841307133613796e-01
         - -8.5126806769739383e-01
         - 6.0698063240271727e-01
         - -6.7417405845502731e-01
         - -4.8418756389459150e-01
         - -4.4097057092663705e-01
         - -1.9097009766829046e-01
         - -3.7470048403213670e-02
         - 1.4123400202087029e-02
         - 2.0253727102876673e-01
         - 4.7188776432001150e-01
         - 6.6606890090012527e-01
         - -1.2469378466751958e-01
         - 4.2077673897565382e-01
         - 2.0143260599417401e+00
         - 3.4162367153306322e-01
         - 6.6708803602879396e-01
         - -1.7548323875126066e+00
         - -1.7128140360045474e+00
         - 2.2371853476612671e+00
         - -2.0295199834118281e-02
         - 5.0478364146245125e-01
         - 1.4772801961331794e+00
         - 1.6668562129550086e+00
         - -1.5933318818963180e-01
         - 2.8716512387163182e+00
         - 3.3500548103209310e-01
         - 6.3318552533644698e-02
         - 4.6240403308963185e-01
         - 9.3108572971150272e-02
         - -4.2619993257341582e-03
         - 2.3648075527207415e+00
         - 5.4956001315432013e-01
         - 3.6984266834536872e-01
         - 4.7919136508757765e-01
         - -1.5125415180210635e+00
         - -4.9504574800260548e-01
         - -1.0215518288993841e-01
         - 8.6784696326494035e-02
         - 3.6663450361664719e-02
         - 3.7987482563623226e-01
         - 1.3556375869465827e+00
         - -7.5796038546972977e-02
         - -4.6492717662443489e-01
         - 5.7491383948979798e-02
         - 1.8136274405829649e+00
         - -9.3934679619893402e-01
         - -1.3584925228417013e+00
         - -4.7945543617370814e-02
         - -2.0624077234751783e+00
         - 9.3428204848045326e-01
         - 7.8114035768410484e-01
         - -1.2775757644876138e+00
         - 3.3337527606885703e-01
         - 5.6679044953015699e-02
         - -2.8665433154223136e-01
         - -6.0208907762851118e-03
         - 9.8748013409999957e-01
         - -3.5072869440718230e-01
         - -7.2366003708935578e-01
         - 1.3817159041275937e-01
         - -4.6222636585890575e-01
         - 5.1090523560767498e-01
         - -3.9948040669560564e-01
         - 3.5981101928986287e-01
         - 2.5312836403226396e-01
         - 2.1141288418369322e-01
         - 1.9860218684329209e-01
         - -2.9707216677597783e+00
         - -1.1957860703117393e+00
         - 9.7088867076190810e-01
         - -1.4797555013777430e+00
         - -4.0890421228023832e-02
         - 2.3977107878427828e-01
         - -5.5826885382924692e-02
         - -1.9725830206588610e-01
         - 5.1812626034923082e-01
         - 9.5259600815214132e-02
         - 1.2037698520014211e+00
         - 5.2381893241275880e-02
         - 8.4387419531347319e-01
         - 3.8947763590847485e-02
         - 1.7194967714739982e+00
         - -1.3804466016692515e-01
         - 2.2732402531984156e-01
         - -1.0485699530459491e+00
         - 4.4915345719607003e-01
         - 1.6165147996533855e+00
         - -1.5638756784747046e-01
         - 5.1414973100880768e-01
         - 3.3619109046032407e+00
         - -2.8103920692749818e-01
         - 1.7496408196282925e-01
         - -4.8468275425615895e-02
         - 2.1940130670748634e+00
         - 1.5022240739586931e-01
         - 1.8235543103151250e+00
         - -1.5628142408782145e-01
         - -5.1396730694056858e-01
         - -1.7267403366112000e+00
         - -1.1626403209132007e-01
         - -8.1883281837577160e-01
         - -3.5438545437709457e-01
         - -4.3975285435592809e-01
         - 3.5009783947538442e-01
         - -5.5768677981316206e-01
         - 1.8016392973452530e-01
         - -1.7246870844880842e+00
         - 2.1504862645598726e+00
         - -8.0383828323797243e-03
         - -5.6339937135326937e-02
         - 1.1621462092660328e+00
         - 2.6159369874243549e-01
         - 4.9607175329438968e-01
         - -1.5853733385943428e-01
         - -1.5052980561933180e-01
         - 1.1141927007095491e+00
         - 2.7977374182050813e-01
         - -3.7074414892533290e-02
         - -3.4829663000138739e-01
         - 1.7232729063301022e-03
         - -2.2029232098167470e-01
         - -2.9642144437904083e-01
         - -1.7412327986862280e-01
         - 8.2744134782351275e-01
         - -2.3452158715462317e+00
         - -7.4374127608591425e-02
         - 3.8378939923068060e-02
         - 3.7623498719291451e-02
         - -8.3893109249798647e-01
         - -2.5229699987497356e-01
         - 6.0224228784663780e-01
         - 2.1926961015940530e-01
         - 2.8745910095544569e-01
         - -4.7921625562229975e-01
         - -5.0418598119191971e-01
         - 2.9478364746167135e-01
         - -9.8152847373750463e-02
         - 2.9585547555007996e-01
         - 2.0742890730744441e+00
         - 8.2885498434870775e-01
         - -1.1482785188257800e+00
         - -1.1232122719812314e-01
         - -2.2145810791385237e-01
         - -2.1275324720271835e-01
         - 2.1123139332855785e+00
         - -4.7872987105642889e-01
         - -3.9821505174883698e-01
         - -5.5923031143758395e-01
         - -1.1990138502117684e+00
         - -1.0469858778452463e+00
         - -6.8110295520977238e-01
         - 9.8717716477301343e-01
         - 1.3626202577680604e+00
         - -4.5030443008953237e-02
         - 6.4697138888616590e-01
         - -2.4760156014375756e-01
         - -2.0196980681688061e+00
         - 5.7100693039512795e-01
         - 4.7244737238696111e-01
         - 9.6323306270742104e-01
         - -8.2780495310239222e-01
         - -1.1988692398735659e-01
         - 3.5916629407067480e-01
         - -1.3838764795625011e+00
         - 4.6734229649113923e-01
         - -1.6545758902336216e+00
         - 1.0265753755775000e+00
         - 1.8332630587648566e+00
         - -1.7137388302301004e-01
         - 2.0560270340499254e-01
         - 5.8552155872601777e-02
         - 1.6680449194278107e-01
         - -1.8593050479235476e-01
         - 9.7445257133992949e-02
         - -9.3247003735479195e-01
         - -1.2584357341304226e+00
         - -3.4836370341491625e-02
         - 1.0290174438057978e-01
         - -1.1066978494903457e+00
         - -1.1705033345406937e+00
         - 4.9138833948850263e-01
         - -8.5593778670553233e-01
         - -3.4108341920831987e-02
         - -6.6161355450770021e-01
         - 6.0349097646228456e-01
         - 1.7555110493990009e-01
         - -1.3652143643391098e-02
         - -7.9067120749528508e-01
         - 1.3401119009853993e-01
         - -7.3944177108776210e-02
         - 4.6088282068721405e-02
         - 3.6411174897962084e-01
         - 1.3945738136334160e+00
         - -2.8610336660757656e+00
         - 9.0632100047756570e-02
         - -2.5932134358575376e-01
         - -6.0527028151937823e-01
         - -1.1351405493262187e-01
         - -2.6791145331126043e-01
         - 1.5325247469460184e+00
         - -1.6751683729122546e+00
         - -2.4412535779390335e-01
         - -2.9017056005550845e+00
         - -3.8894983868235106e-01
         - 2.3229838124792015e+00
         - -8.4882493555715477e-01
         - -1.4043965451186622e+00
         - -3.2811507132952272e-01
         - 1.6390054600763590e-01
         - -1.1050644809586743e-01
         - 2.3118446338668552e+00
         - -7.6845105930099189e-01
         - -9.9212629850672152e-01
         - -5.0971049536338076e-01
         - 9.0208147437063735e-01
         - -1.0142198599100505e+00
         - -7.9270841879289888e-01
         - 5.3382583354505131e-01
         - 1.5236618950986025e+00
         - 1.4609322535284061e-01
         - -7.9438123800443505e-01
         - -1.2653799401449435e+00
         - -2.2771573732546981e+00
         - 2.0971607820488627e+00
         - -2.4677887126857105e+00
         - 1.3108375742526146e+00
         - 3.8885766609091699e-01
         - -2.5547897059941233e-01
         - 1.6291107579885455e-01
         - -1.2131370153321280e-01
         - 3.4347106593254710e+00
         - -7.4914322412201806e-01
         - -3.3936118329501294e-03
         - -9.0052444121869879e-01
         - 6.8661639736819413e-01
         - 5.3956745704407694e-01
         - -5.5560369764490591e-01
         - 1.6721971670656905e+00
         - -4.7168493216969076e-01
         - 2.2084603753907750e-01
         - -2.5265930889591576e-01
         - 5.3469022926625498e-01
         - -5.8103627294827531e-01
         - 9.4469175434566421e-01
         - 2.0945832396727782e+00
         - -4.0583131878065143e-01
         - 2.3810574786797014e+00
         - 3.9731787410486036e-01
         - 6.4008538049837871e-01
         - 7.6186549547743621e-01
         - -1.1538693016759831e+00
         - 4.1833708270385704e-02
         - 6.6241834840928646e-04
         - -3.1254537499438284e-01
         - 3.0444285891791789e-01
         - 5.7188066651370428e-01
         - -6.9943393570132206e-01
         - 2.7698098638566707e-02
         - -3.7547509378514071e-01
         - -4.1147329725715318e-02
         - 1.5888481851081646e+00
         - 6.8515988150397597e-02
         - 4.3226129125179719e-01
         - 5.4793184867168887e-01
         - 7.7854435870277891e-02
         - -1.6309321602571353e-01
         - 1.8817505426901335e-01
         - 2.8465522021610529e-01
         - 1.6838973437627791e+00
         - -9.5460535447854170e-03
         - -1.3536988902335811e+00
         - -3.8975284091872875e-01
         - 3.0047409708097356e-01
         - 3.9605283121169742e-03
         - 2.2339827194542791e-01
         - -2.8722393563595965e+00
         - 8.5857112236823088e-02
         - 1.7898355962834389e+00
         - 3.1457981235375232e-01
         - -6.2155606638455441e-01
         - 1.4106118425586642e-01
         - -3.2789329070291902e+00
         - -9.4683188945006158e-03
         - 1.3288693473200281e+00
         - -6.2589740009757111e-01
         - -6.0984760668359984e-02
         - 2.0860319325835119e+00
         - -3.3087118980797164e-01
         - -3.0938465441672491e+00
         - -1.1556572272949383e-02
         - -9.9416763955424273e-02
         - -4.1743107938953600e-01
         - -5.8586961503590229e-01
         - -1.0113162546756806e+00
         - 1.1234182615976875e+00
         - 1.0204568116776917e-01
         - -8.9288327055960126e-01
         - 8.2529739123103696e-01
         - 3.0508350190945960e-01
         - -3.7773118821436386e-01
         - -1.2548298196413863e+00
         - -3.1750547464591655e-01
         - -1.0587351014151151e-01
         - 1.0392437809113015e+00
         - -2.9843693650607617e-01
         - 1.9912166119255362e-01
         - -3.3033300596987242e-01
         - -2.3706007434358538e+00
         - -1.1379668818358617e-01
         - 1.3002059907670299e-01
         - 9.3643036973376481e-01
         - -3.2377707077148965e-01
         - 2.9724640621103493e-01
         - 4.3201798414046283e-02
         - 4.5454082479625825e-02
         - -3.5135591879754373e+00
         - 2.3372348767686353e-02
         - -8.3695629591911777e-02
         - 2.6581628897363624e-01
         - 5.6157203603088048e-02
         - 2.6939300203398825e-02
         - 6.6419861006318959e-01
         - -2.0015370051159276e-02
         - 8.5228676891284438e-01
         - 7.6386614015954224e-03
         - 7.3198133073612615e-02
         - 4.4750441487829168e-02
         - 1.6970797381567146e-01
         - 8.2223678790191068e-01
         - -5.3342001683373141e-01
         - 4.1635317520649723e-02
         - -9.1764780899391574e-01
         - 1.1993038807899112e+00
         - 1.1628983852882326e+00
         - 1.0981165730260880e+00
         - -5.9474551862692659e-01
         - 1.6628838029877704e-01
         - -3.3956247747640067e-01
         - -1.1131394088527728e+00
         - 3.4754976792044451e-01
         - -1.7034159040066919e+00
         - -2.4591213637182455e-01
         - -9.3770949846282620e-02
         - 6.5139490341932793e-01
         - -2.1897062428748391e+00
         - -2.0822395329548823e-01
         - 5.7914073184403392e-01
         - 7.1883190094448479e-01
         - -1.2414107206276646e+00
         - 6.9732014178668011e-01
         - -9.3196530320208903e-01
         - -1.3111168497656822e-01
         - 1.5686135965425574e+00
         - -3.5269333531227920e-01
         - -1.6499633016631379e+00
         - -1.3209765648975333e-01
         - 5.0524598511838181e-01
         - -4.4643704016416091e-01
         - 7.9076858204423706e-01
         - 1.9783904411865889e+00
         - -4.0415828140758570e-01
         - 2.6030414935388452e-01
         - -4.4133320023638858e-02
         - -1.7501074182141507e+00
         - 1.1264542834986739e+00
         - 1.0332420797002582e+00
         - -3.2501145613923610e-01
         - -9.6714802681537282e-01
         - -4.5182457608631077e-01
         - -1.5800312429875052e-01
         - 7.3530424890459536e-02
         - -4.5049135333076823e-01
         - 1.3849273419000571e-01
         - 2.5505816095650780e-02
         - 5.2957527087840384e-01
         - 4.9676198959882156e-01
         - 4.8583163084232585e-02
         - 1.2652559450898042e+00
         - -1.1277063323569212e+00
         - 1.1727307173750647e+00
         - -8.6423338845377262e-01
         - 1.0793107424176100e+00
         - 7.2784182167004086e-01
         - -3.1172014502400736e-01
         - -1.5728347187646228e+00
         - -4.1598695292682293e-02
         - -1.6939041936785390e-01
         - 3.2650954121197264e+00
         - 1.4967884255188812e-01
         - -6.0966321310738682e-02
         - -2.6315047351538134e-01
         - 2.2403376621381452e-02
         - -1.2247272242240841e+00
         - -1.9779852557264734e+00
         - -8.6203069276064151e-02
         - 2.5584423687225666e-01
         - -1.5310072716282390e+00
         - -9.0158462856540700e-01
         - 9.2458851753838611e-02
         - -3.4824058888991577e-01
         - 5.9690238608818524e-01
         - 7.0172167021306531e-01
         - -1.0728880504182852e+00
         - -4.9625931555955338e-01
         - -1.2999416238258752e+00
         - -8.9749362653633113e-01
         - -1.1892214953337363e+00
         - -3.5190563251464940e-01
         - -7.6849021598910119e-02
         - 1.3007308896207331e-01
         - 1.2322718339163265e-01
         - -1.4845643579520595e-01
         - 4.6903117545894844e-02
         - 1.8088995430152199e+00
         - -8.5923086781211955e-01
         - 5.3260593233289288e-01
         - 6.7848901270206685e-01
         - 1.6301351464916239e-01
         - 1.0228768650259112e+00
         - -3.4779059102137755e-01
         - 4.4344630373690602e-01
         - 8.2553735518953786e-01
         - -7.4120076213967923e-01
         - 2.9278359948628467e+00
         - 1.4136095166178524e+00
         - 6.3279107219642949e-01
         - 4.9042615250238942e-03
         - -8.5052014646647328e-02
         - -3.8385484891210581e-01
         - 3.8814337386347214e-01
         - 3.1374386761163464e-01
         - -1.3992466420438315e-01
         - -1.3949880447968954e-01
         - 5.5523463272518903e-01
         - -5.7627392440883318e-01
         - 1.7852323173865386e-01
         - 1.2198925460245515e+00
         - -5.4873934744393849e-01
         - 1.7280536033510888e-01
         - 9.7518360851550884e-02
         - -1.0357886396072953e-01
         - 2.9749862783814435e-01
         - 2.4556275982598674e-01
         - 1.7837434243210839e+00
         - -1.0822205979549997e+00
         - 7.8880772357170859e-01
         - 6.2354673842681874e-01
         - -5.0463230358711020e-01
         - 2.4872712213075961e-02
         - 7.5606630511147588e-01
         - 7.5409548248306968e-01
         - -8.4809717055889156e-01
         - 1.4118051849946425e+00
         - 2.9481840599601944e-01
         - -6.2606111160528677e-01
         - 8.6703444156975548e-02
         - 5.6714387756124207e-01
         - 3.8402203747038577e-01
         - 1.8465843339930615e-01
         - 1.9531868700410043e-01
         - -1.4027206582973611e-01
         - 8.3794833634453725e-01
         - 3.0163973089240681e-01
         - -3.6431555431992280e-01
         - 2.6379521804978497e-02
         - -1.6124113044823676e-01
         - -2.3689474776781108e-01
         - 2.7208149611071644e+00
         - -5.7629729438228716e-01
         - -3.2227013305544433e-01
         - 1.4679160125530750e+00
         - 5.5123339232540747e-01
         - 4.9092112340302946e-01
         - 4.3514461565847573e-01
         - 1.6177873801826381e-01
         - -1.7722908756943809e-01
         - -7.6334810896003968e-02
         - -9.8047944179812141e-01
         - -1.1410102902314945e-02
         - -1.2910011372102792e+00
         - -3.5502078790031991e-02
         - -7.9435237299242442e-02
         - 5.6245792886389723e-01
         - -1.4061912512147882e-02
         - 1.8261757165111742e-01
         - 2.0331507253558950e-02
         - -4.8542648558593099e-01
         - -1.8148019624565040e-01
         - 8.4965341209178813e-01
         - -5.8499700368104712e-01
         - 2.2072069221420515e-01
         - -3.7402958028233811e-02
         - 8.2853466635183992e-01
         - -1.0393879742277221e-02
         - 1.1684983697632658e+00
         - -8.6661483093864500e-01
         - 2.0919187924398845e+00
         - 6.0097236449539670e-01
         - 2.3032572539055045e+00
         - 5.4504982596998250e-02
         - 7.8351218412643298e-01
         - 2.2784598006877438e-01
         - 7.1324143326710332e-01
         - 3.0903320904492249e-01
         - -3.0626894120309622e-01
         - 4.5838846986013475e-02
         - -4.2351088847301105e-01
         - 4.0686222533822775e-01
         - 2.1727695680525189e-01
         - 1.0474900796165280e-01
         - -1.1190261319186621e+00
         - 9.9038572204176378e-01
         - -5.2867109109226262e-01
         - -1.8632336638598260e-01
         - -1.0103084752980115e-01
         - -1.4567176726502751e+00
         - -1.5919037262434360e-01
         - 4.6118667579703654e-01
         - 1.1263096818918478e-01
         - -5.3871060509620317e-02
         - -9.6321909123475324e-02
         - 1.7197114818270864e-01
         - -2.9093846633519677e-01
         - 1.2117316669242164e+00
         - -1.8473644689056521e+00
         - -6.2697665994656315e-01
         - 5.0650412972455816e-01
         - 4.6925160817225187e-01
         - 9.7382224577661447e-01
         - 7.7817084181921947e-01
         - 7.9800924227141079e-02
         - -2.9820440388096191e-02
         - 8.6527492817723528e-01
         - 2.8583151855793999e-02
         - -1.0173822755097097e+00
         - 8.1776532162240567e-02
         - 6.0068739275260692e-02
         - -4.0295810534453874e-01
         - -1.7286597949140303e+00
         - 1.1337576953852118e+00
         - -8.8068626524943050e-01
         - 3.5831085017795883e-01
         - -1.7732008176075780e+00
         - -6.2948116778393071e-01
         - 4.6109997774190348e-01
         - -5.7562643414738934e-01
         - 6.2769379182043106e-01
         - 1.1280344578337884e+00
         - 6.8201893254395152e-01
         - -7.2966707522828878e-01
         - 4.0409947472523494e-02
         - -1.1705381059721813e+00
         - 3.0130788624744770e-01
         - 5.2566311438162694e-01
         - -9.4458242611238322e-02
         - -1.2254609442061513e+00
         - -4.1220180417165797e-02
         - 6.6482954474396705e-01
         - -4.9004536366833623e-01
         - 3.6755992784066160e-01
         - -7.8195141752647712e-01
         - 1.1073796017185308e-01
         - 2.8860897604518149e-01
         - 1.0666900563462984e+00
         - -2.3958081392305051e+00
         - -4.7415638711100044e-01
         - 6.8832605389465407e-01
         - -1.4608410572434454e+00
         - -4.4533520659753550e-01
         - 3.8836923953217994e-01
         - 2.1623242054091424e-01
         - -9.3945861426163638e-02
         - -1.4324343198240555e-01
         - -1.2730690557075748e-03
         - -1.4641839191311082e-01
         - -9.2770892693241902e-02
         - -8.2320208386095869e-02
         - -1.2480317374167875e+00
         - 1.0327354744783828e+00
         - -8.2159553918569128e-01
         - -6.6216274461066205e-02
         - -3.1287417484274360e-01
         - 2.2482131284536648e+00
         - 6.8472076226188130e-02
         - 9.4352736600135001e-01
         - 2.2856715465191624e-01
         - 2.7278742653218413e-01
         - -8.6237094285713767e-01
         - -7.4012028850960337e-02
         - 6.3404957405222506e-02
         - 3.4255499842021053e-01
         - -1.1098022971838841e+00
         - 9.1024226886109472e-01
         - 8.2570395498468485e-01
         - 2.5782347616517576e-01
         - 1.2749722437553237e+00
         - 1.7415942061226279e+00
         - 1.1562630005879512e-01
         - 5.8745118927832596e-01
         - -6.6572774652224817e-02
         - 9.5720865308519154e-01
         - -5.2635678806327324e-01
         - -6.6889912468034918e-01
         - -5.6663600409427084e-02
         - -6.3058371073079789e-01
         - 7.7966986101947633e-01
         - 2.6044849825456839e-01
         - -4.4119584273560816e-02
         - 3.1836032553629573e-02
         - 8.6824448968014098e-02
         - -3.2800785352983183e-02
         - -2.3063804449945721e-01
         - 1.8628744771814568e-01
         - -4.5270208222717151e-01
         - -5.8315915103331406e-01
         - 4.3570121844883319e-01
         - 4.7526535701760425e-01
         - 5.5876195507267779e-01
         - -8.2714572827872845e-01
         - -1.4176351518396035e+00
         - -4.1357392023842976e-01
         - -9.1161603643961786e-01
         - 1.1604520977816273e+00
         - -1.6847231646368646e+00
         - 2.1430756658408556e-01
         - -2.6513656878496022e-01
         - 4.1489273967546952e-01
         - -2.6321162689019049e-02
         - 7.9802486033419140e-01
         - 8.6365971750607215e-02
         - -1.1723763258442323e+00
         - 8.3635827065227930e-03
         - 3.9839744492492717e-02
         - -4.0380087379309038e-01
         - -2.0893665528133856e-01
         - -2.8019583437645940e-01
         - -3.5726816206506522e-02
         - 6.1733287836495587e-01
         - -3.7015863162491769e-01
         - -6.3964568652359957e-02
         - 2.1347020141206666e-01
         - 3.6399422471522808e-02
         - 1.5854147763015365e-02
         - 5.7069254052474494e-01
         - -1.0002676441148186e+00
         - 5.8598320020709238e-01
         - -5.6310075523711300e-01
         - -3.6536850647761804e-01
         - 2.6423586864412302e-01
         - -1.1006137548725541e+00
         - 6.0602250352827826e-02
         - 8.1540465042934895e-01
         - 5.6714601941332254e-01
         - -1.4394686851756837e-02
         - -7.6532578484358205e-01
         - -5.0470110095684950e-01
         - 9.9047618257323200e-01
         - -6.8834858495726077e-04
         - -1.1433082436273974e-02
         - 1.5040373676993882e-01
         - -1.1724566759868081e-01
         - -1.1973595595776374e-02
         - -2.6189762556056917e-01
         - 1.5310402914520799e-01
         - 2.4243066706388702e-01
         - -1.0269113746755468e-01
         - -2.7741543363775617e-01
         - 3.8387106465828352e-01
         - -4.1703112022075073e-01
         - 5.2937783652231792e-02
         - 1.4752270402536614e+00
         - 5.1264014018236097e-02
         - 6.1769425844207837e-01
         - 3.1656488042540520e-01
         - -1.4120607060220711e-01
         - 2.9901782905976576e-01
         - -4.3622131656438062e-01
         - -7.1397004241390061e-01
         - -2.4400625933170068e-02
         - 7.5723379559552384e-01
         - 2.0486110271562880e-01
         - 8.2101624551831220e-01
         - -3.4078242054753755e-01
         - 2.7688728820955194e-01
         - 2.5702785829184283e-01
         - 2.0414352945425085e-01
         - -1.3757041414835822e+00
         - -7.1020251118200164e-02
         - 1.7930870124827312e+00
         - -8.7487420171521058e-01
         - 2.3990064239587461e-01
         - 1.0471590155619236e-01
         - -2.5060161020432459e-01
         - -1.9918861635503934e-01
         - -1.3026070068116757e+00
         - 3.8133058124086588e-01
         - -2.0334007149934141e+00
         - 2.9373742813935477e-01
         - 1.0972380310929944e-01
         - -7.6862094321276497e-01
         - -4.2766789138957195e-01
         - 2.9307479379592533e-01
         - 2.1115705137686494e-01
         - 3.0363059772203843e-01
         - -1.1529347590779932e-02
         - 3.1677131819080072e-02
         - -1.3857878149135966e-01
         - -2.0794563781272193e-01
         - -5.8366405753841090e-02
         - -1.3781528953983183e-01
         - 7.6762281548489242e-01
         - -1.6523030717384690e-01
         - -2.5044599733528883e-01
         - 4.2604052157673877e-02
         - 1.0598737787609959e-01
         - 5.0905788191932722e-01
         - -4.6887838801005041e-02
         - 1.1223312420915728e-01
         - -2.0745691431575747e-02
         - 2.3776431330021930e-01
         - 8.0457855934253329e-03
         - -1.0481907162373495e-01
         - 1.0957007131950331e+00
         - -6.3927723943661541e-01
         - 3.6838485634384362e-02
         - 8.8449077014883870e-01
         - -6.1983167566614809e-02
         - -1.1686538924469948e-01
         - 3.3558395149645842e-02
         - -2.0510830438790251e-01
         - -6.9955858856949504e-01
         - -3.0558586998228560e-01
         - -7.6199796024372490e-01
         - 5.4714938095805055e-01
         - 5.7414039687626950e-01
         - 8.9177897520384998e-03
         - -1.6727982447283540e-01
         - 1.7964886667273798e-02
         - 1.4091351190206496e+00
         - 2.8491391967726532e-02
         - -2.8967555535805456e-01
         - -1.0438605410005991e-01
         - 4.6598314629524386e-02
         - 5.2408157310664507e-03
         - -9.6204072486381231e-01
         - -3.1757032608705449e-01
         - -1.8218386546183720e+00
         - -5.4377985467708570e-02
         - -1.8333401492818363e-01
         - 1.7565551915716063e-01
         - 6.3017117087802155e-01
         - -2.4608144813798971e-02
         - -5.6792717210339128e-01
         - -9.2827661006173090e-01
         - -6.9039548532819600e-02
         - 1.7991944891770413e+00
         - 4.0512269350558661e-01
         - 6.7021315386216390e-02
         - -3.3591538805235632e-01
         - -3.6545710668157039e-01
         - -9.4903680537643553e-01
         - 2.4772280907662611e-01
         - -1.4644945959768366e-01
         - -3.6569239480201471e-01
         - 4.2521056681966363e-01
         - -8.2411192380020659e-01
         - -1.1884570133317832e-01
         - -3.2605001610436168e-02
         - -1.9827097865645893e-01
         - -1.1458852049904973e-02
         - -1.5485471296706457e-01
         - 1.6558424480507494e-01
         - 3.5671456172708185e-02
         - -9.8853126412284970e-02
         - 5.6313446005940605e-02
         - -2.7993866224417757e-01
         - -2.5815178241397019e-01
         - -6.9929808055174569e-02
         - 2.1662682654577806e-01
         - 3.5422045731204493e-01
         - 4.8869518810052512e-02
         - 7.0830398408141437e-01
         - -1.9517702975433565e-01
         - 9.9114698494915987e-01
         - -1.4739249732179235e-02
         - -1.7288237756385758e-01
         - -5.6636089983056213e-02
         - -2.5324525316012370e-01
         - -3.4102319910127160e-01
         - 2.4208045618228249e-01
         - -2.5525352119986749e-01
         - 3.9861857843983761e-01
         - 4.2789441757763286e-01
         - 1.1563571973683404e+00
         - 7.2696961088900514e-01
         - 3.5498920356166325e-01
         - -2.0043019585365865e-01
         - 1.1734302557007190e+00
         - -2.1087122455197557e-01
         - -1.3552854554529734e+00
         - 7.6453778085578372e-01
         - 2.2715423879820436e+00
         - 5.6904482493924802e-01
         - -2.0789495703633726e-01
         - -1.3606582733597503e+00
         - -5.4695116228459251e-01
         - 1.5996969414854078e-02
         - -1.1086226370340892e-01
         - -1.6796582859113124e-01
         - -2.6880210412594790e-01
         - -1.4213007620443003e+00
         - -7.1366342149894935e-01
         - 6.3782115061942080e-01
         - 7.5065646840985600e-02
         - 1.5985206159549965e-02
         - 1.3929963640330861e-01
         - -1.1594896316295698e-01
         - 7.8692742998146326e-01
         - -1.4510392571118564e+00
         - 6.8015660910158671e-01
         - -1.9389183625850639e-01
         - 3.4213356471402745e-01
         - -4.1239732761594933e-01
         - 1.3589221108640286e+00
         - -5.8138662519187745e-01
         - -1.0913429485115991e-01
         - -3.1119655183221778e-01
         - 7.5680781630874609e-03
         - 2.4244419605854353e-01
         - 7.2947686482698157e-02
         - -1.3953932462803451e+00
         - -8.2229727637102457e-02
         - -1.3108748031029798e-02
         - -4.1951506771838459e-01
         - 4.9951248605256565e-01
         - -2.5536333679688744e-01
         - -1.3581060291372096e+00
         - -1.1612430315768206e-01
         - 8.7546751490421226e-01
         - 1.0554030436416190e-01
         - -6.1243072243778751e-01
         - 2.3101423046050079e-01
         - 1.3753563016973558e-01
         - -1.4779422011834715e+00
         - 2.6635298077334107e-01
         - -2.9397902973819852e+00
         - 2.9863890658770070e-01
         - 1.3801842501464645e-01
         - 2.0671052446836486e+00
         - -7.5423421014166292e-01
         - 3.9825775003591019e-01
         - -8.3687214109977104e-01
         - -1.1666322258311965e+00
         - 2.7822707620659898e-01
         - -3.3806972337884689e-01
         - -2.9204419369783396e-01
         - -6.0947738218320191e-01
         - 1.8788770057352203e-01
         - 1.3524826085426164e-01
         - 2.1414033730860896e-01
         - -4.2542972238189414e-01
         - 7.3601523691644744e-01
         - 2.0489660708684029e-01
         - -6.9017372048558889e-01
         - -3.7204640154251556e-01
         - 3.8841215494845233e-02
         - -6.5704428717629118e-02
         - -1.9499168725582590e+00
         - -2.2901019460527001e+00
         - -7.8662859599852986e-01
         - -1.2534980685304102e+00
         - -2.6287644215064720e-01
         - -5.1354029249958077e-01
         - 5.9745463816346503e-02
         - -2.2280076104366187e-01
         - 7.6358443403311638e-01
         - 1.4056423841333041e-01
         - 1.8417573082178771e+00
         - -1.0472215268184074e-02
         - 2.8540558028427349e-01
         - -1.6297204885773775e-01
         - 7.4394492313670502e-01
         - 2.0628749067412419e-01
         - -1.2112174494659973e+00
         - 1.1537571843115138e+00
         - -1.3761334546825091e-01
         - 5.1429897401284430e-01
         - -4.3886448890160433e-02
         - 1.3614052404765724e+00
         - 1.8647382611466417e+00
         - -1.0145931028921126e-02
         - -8.9362512543460559e-01
         - 4.5115068461621904e-01
         - -1.3595842903818642e+00
         - -2.5784201578261299e+00
         - 6.0458988426236445e-03
         - -1.0881406288184191e-01
         - -9.9267647155955374e-01
         - -7.5353683108653302e-01
         - 2.4431247034712684e+00
         - 2.2589916035633522e+00
         - 4.2409003407547291e-01
         - 1.5054869190309601e+00
         - 2.2863407510452954e-01
         - 2.1161493209956730e-01
         - -2.7586365556062514e-01
         - 1.1538103096353090e+00
         - -1.1556428726747041e+00
         - -4.7502491584361295e-01
         - -1.6816394812861138e-01
         - -9.8356927373470848e-01
         - 2.1927734580116079e-01
         - 9.9841743388712345e-01
         - -8.1979874842626324e-02
         - 4.5716049859027844e-02
         - 3.2614886709747131e+00
         - 5.0192732216727438e-03
         - 2.0130098856997108e-01
         - -2.9675623730851891e-01
         - 4.1356545415305451e-02
         - -9.6050504411164001e-02
         - -1.7830007119500957e-01
         - -2.7464519228096598e+00
         - 6.5207803191117863e-01
         - 2.9645208343003491e+00
         - 1.6516512569789314e+00
         - -1.5075151819073193e-01
         - -9.3204714311724418e-02
         - -5.7345484293196680e-01
         - 6.5083039955387056e-01
         - -1.8696624916511118e-01
         - -1.3883221563317080e-01
         - 1.6684386151129105e+00
         - 2.4732590755632767e-02
         - 1.6596990772735813e+00
         - 6.7594560510692403e-01
         - -1.9998330337513315e-01
         - 9.3445019246055139e-02
         - -7.5241514246156149e-01
         - -2.6646092340089084e-01
         - -1.7557257596039468e-02
         - -3.3034637221965085e-01
         - 9.3897734697284863e-01
         - 2.9171258942124464e-02
         - 1.5617067869195063e+00
         - 2.4501705388186773e-01
         - -4.0133163306631587e+00
         - -1.3932597994464482e+00
         - 2.3372805902693761e-01
         - -5.5956036791124451e-02
         - -1.6904644674025173e+00
         - -3.0847294067373343e-01
         - 3.5279375175062666e-01
         - -1.3127515970088044e+00
         - 1.7379013684635731e+00
         - -1.0408408227326678e-01
         - 1.2321918605154172e+00
         - -6.3976160088303979e-01
         - 2.5524217949190153e+00
         - -1.0909178762182874e+00
         - 8.8124108859714190e-01
         - -4.7408106961292287e-02
         - -1.7063697489285529e-01
         - 2.4486921866235147e+00
         - 8.9352990978091973e-01
         - 7.5244359038145314e-01
         - -1.1842238383068346e+00
         - -5.0782162837395950e-01
         - 1.8789147799475558e-01
         - -5.9368791169782713e-02
         - -1.6172580035895825e-01
         - 5.9029806707018982e-02
         - -1.4824119103544853e-01
         - 1.6561204367192808e-01
         - 4.4760239193169810e-01
         - -1.2266608024274607e-01
         - 1.0875690275678657e-01
         - 5.6452909901186643e-01
         - -1.5143966359065722e-01
         - -4.4629612233823235e-01
         - -1.6860324271838376e-01
         - -2.9479958739419754e-01
         - -2.5843718051076353e-01
         - 1.4785823645140678e-01
         - -6.7128318004955989e-01
         - 1.0680674521358027e-01
         - 1.0118138729236302e-01
         - 1.3827079114707819e+00
         - -1.3729046303942738e-01
         - 5.7201999178933427e-02
         - -4.8220503164773006e-02
         - -8.6730535427569344e-01
         - -6.0604328698221066e-01
         - -1.7300879340058228e-01
         - -8.8733821520109057e-02
         - 1.9963791342932086e-01
         - -1.8761034480529248e+00
         - -4.3968716684498321e-01
         - 7.5526802045060704e-01
         - -2.8342557337266294e-01
         - 4.0641220205562234e-01
         - -4.0747128569590019e-01
         - -6.2312209789221074e-01
         - 2.8847690077097804e-01
         - -1.0439784142321937e+00
         - 1.2316537222181130e+00
         - 2.6561813087114466e-01
         - -1.8122188721296623e-01
         - 1.3089889090465712e-01
         - 1.4377936171709940e-01
         - -2.8156610772333568e-01
         - 1.5932991859851758e-01
         - -1.1809148863530977e-01
         - 2.4965569922647432e-01
         - -6.6998236534112299e-02
         - -5.0846475271695953e-02
         - 6.4588076835458230e-01
         - -1.4923226666516254e-01
         - 4.4451166296071032e-01
         - 1.7742327885604012e-01
         - 2.0149896263596379e-01
         - -6.1113858203866278e-01
         - -1.1362872933038586e-01
         - 5.2739303078327283e-02
         - -2.9301792158174406e-01
         - 1.6418263108919584e-02
         - -2.2128165707651121e-01
         - 1.7618132536157355e-01
         - -4.2303448123019824e-02
         - 2.8491623635490959e-01
         - -3.9139824952550706e-01
         - 2.8326996082576783e-01
         - 1.5479867710665468e-01
         - 3.7856413357244001e-01
         - 9.3547518107265540e-02
         - -7.0758052659752879e-02
         - 7.2724404439342832e-02
         - 2.1739767222832379e-01
         - -7.2808005049739407e-03
         - -1.2659524315320075e-01
         - 1.7030446779482111e-01
         - 5.6344453609171088e-03
         - -2.0691247976191560e-01
         - 5.8104222474773637e-01
         - -5.7316606266054615e-01
         - 4.3805836402418302e-01
         - -5.6865458104007038e-01
         - -1.3773879763285282e-01
         - 1.0857648509157101e+00
         - -1.7040343051169933e+00
         - 3.8072857431687279e-01
         - 1.1853734992916913e+00
         - -7.6068139978171079e-01
         - 1.0067381935056169e-01
         - -6.6505896326508843e-02
         - -7.3633792591703351e-01
         - 5.1764420625533369e-01
         - 5.3913656636876106e-01
         - 6.1087183132188971e-02
         - -2.5654766926813727e-01
         - -1.4833612111203354e-01
         - 8.5479500232781347e-01
         - 3.3455664195005025e-01
         - 1.7771512289831840e-01
         - -3.4853639413766246e-01
         - -4.3733012834471424e-02
         - 1.4652961757703403e-01
         - -1.2136357482095304e+00
         - -5.3724590830169194e-01
         - 8.5370159409502058e-02
         - 1.4839860367260169e-01
         - 1.9169429168971314e-01
         - -3.9656399584778940e-01
         - 1.8938899079266000e-01
         - 4.3970152442284166e-02
         - 1.8344097755059796e-01
         - 8.2203718499254494e-02
         - 2.6212212479270386e-01
         - -1.4700666240978688e-01
         - -1.4792563878653922e-01
         - 2.5596438814809795e-02
         - -3.3933473375867218e-01
         - -4.3335064166704634e-01
         - -2.3997550612853624e-01
         - 9.7193661002915419e-02
         - 3.9024240733190177e-02
         - 1.3359064972822635e-01
         - -1.8923937385979342e-01
         - 8.9370307767405310e-01
         - 7.2053874246190130e-01
         - -1.1640767658359047e-01
         - 4.1748398695425576e-01
         - 1.0931851298233557e-01
         - -5.1856308971796239e-01
         - -1.4487717860785984e-01
         - -1.8935436162688637e-01
         - -4.0304695367910237e-01
         - -4.2277946581906384e-01
         - -5.5135410186862865e-01
         - -1.7024008028025320e-01
         - -1.8826564271957763e-01
         - -7.3859941999322609e-02
         - 2.3134507481494557e-01
         - 1.6868063459469185e-01
         - 1.1271315381075751e-01
         - 3.8406398806781239e-01
         - -1.0159600884472884e+00
         - -7.2551129813174420e-01
         - 3.6357396882961956e-01
         - 1.9228671173261569e-01
         - 2.3133864299840302e-02
         - 3.2722313306694567e-01
         - -4.5750674769102530e-02
         - -2.0493642330250774e-02
         - -9.9339340636067253e-02
         - -6.2997686375622997e-01
         - 1.3429851767042605e-01
         - 6.7311178391760096e-02
         - 6.5129822265183698e-02
         - -1.7970214785047546e-02
         - -4.8825103116520103e-03
         - -2.0274870939431974e-02
         - 1.3636980988935647e+00
         - -8.8450891584743829e-01
         - -1.4302361262031840e-01
         - 4.2804635331506685e-01
         - -1.6582762738291296e-01
         - -1.2649370406428526e-01
         - -1.8058176913684959e-01
         - -5.9786509080425156e-03
         - -2.9774268367945861e-01
         - 1.2379688878977216e-01
         - -9.1760677029483473e-01
         - 1.7252618246299137e-01
         - -2.4117775306801492e-01
         - -1.9194978498781728e-01
         - 3.5893588266688085e-02
         - -1.6993346932919834e-01
         - 1.3060293278630142e-01
         - 3.2447359343761789e-01
         - 4.8272133173361870e-01
         - 5.7504756067328011e-01
         - 3.3147900159376971e-02
         - 6.1059964506099651e-01
         - 2.7176527732725664e-01
         - 2.9395483472924172e-01
         - -1.0132517312577695e-01
         - -8.5460987999825233e-01
         - -4.0214851710820804e-01
         - 5.9229370323837738e-01
         - 8.0995733465160846e-01
         - -5.1222487193042732e-01
         - 5.9998984615442597e-01
         - -1.4141251826010476e-01
         - 1.7128918782345470e-01
         - 2.3062819952971714e-01
         - -3.4528486724661378e-01
         - 1.6332146365806458e-01
         - -4.7926399681017484e-01
         - -4.0179685555936268e-01
         - -6.5919325685140917e-02
         - -1.1254604194290337e-01
         - 8.4149922922510903e-02
         - -3.6603594120302435e-01
         - -4.0145977414988304e-01
         - -9.6833588251991620e-01
         - 1.9496699566095047e-01
         - -1.1272382514512105e-01
         - -8.8197082385230274e-02
         - -1.7142986129545867e-01
         - -1.1773528421417221e-02
         - -2.9685212803706162e-01
         - 3.5729314564160725e-01
         - -4.7869024080694139e-01
         - 1.7970723113557258e-02
         - 5.4890595983590229e-01
         - 1.4586071525202504e-01
         - 6.1483411529930410e-01
         - 2.1291440266764139e-01
         - -4.0283499108371457e-01
         - -1.0282172260539867e-01
         - -8.8753608585410926e-02
         - 1.1449283838075691e-01
         - 3.3756658309320237e-01
         - 8.3200981166352261e-01
         - 2.7681561792430581e-01
         - -1.7260194313412699e-01
         - 3.9723766438350822e-02
         - 3.6912896239682025e-01
         - -4.4898265792983186e-02
         - 4.0419218597750667e-01
         - -1.0419899465771998e-01
         - 6.0341437872067238e-01
         - 1.1700255020665404e-01
         - -1.9168075895320608e-01
         - -1.4027500804981188e-01
         - -1.3129519562967458e+00
         - 5.4542798144710070e-01
         - -3.4124680118129422e+00
         - 3.0865921869950680e-01
         - -2.0381341034131788e-02
         - -7.1537645681105666e-01
         - -8.7440967240449408e-01
         - 6.6160320053834198e-01
         - -1.5091994812691747e+00
         - -8.9251604292501882e-02
         - 2.0219496601446281e+00
         - -2.4618775751195407e-01
         - 2.0756773156688096e-01
         - 3.5058113041087341e-01
         - -3.4466781563701243e-01
         - -6.6673914609382587e-02
         - -4.7561843565277040e-01
         - 7.2086660821741233e-01
         - 9.8765320850759453e-01
         - -8.9785636861322360e-01
         - -2.0886627508075053e+00
         - 1.0600181372956150e+00
         - -9.7861195093825604e-01
         - 4.8285521077985277e-01
         - 2.3675528169634633e-01
         - 4.1452902546517556e-01
         - -1.0037738003042322e+00
         - 9.6646426991001688e-01
         - 9.7085341743984824e-02
         - -1.6798469285172197e+00
         - 2.2515254163828313e-01
         - -7.8356603101915195e-02
         - -2.7797727419995361e-01
         - -2.8324741436283463e-01
         - 7.7152473356506546e-01
         - 1.5952312593984494e-01
         - -6.1383521345693040e-02
         - 1.6001309300581151e-01
         - 1.9124190069497995e-01
         - 7.9566254133941394e-01
         - 5.5319596326532661e-01
         - -1.1135829735290199e+00
         - 1.8911404974340287e+00
         - 3.5900191575605567e-01
         - -7.2143379097650884e-01
         - -1.6780383102598961e-01
         - -2.1815611380005931e-01
         - 1.3367297047623414e-01
         - -1.6629552674375452e+00
         - 3.0513595679003216e+00
         - -9.0805810553062594e-01
         - -3.6585324616583309e-01
         - -1.4869001730307430e+00
         - 6.2202316610457165e-01
         - -2.7819961855888526e+00
         - -2.9489123787253257e-01
         - 2.9729172222233846e-01
         - 2.9036266451736198e-01
         - 3.8105202171295022e-01
         - 1.0522783467601990e+00
         - 1.2275059479671886e+00
         - -6.8785592236055279e-02
         - -2.3647442450934578e-01
         - -2.7222908632964293e-01
         - 1.8211982860884438e-01
         - -3.2430308106117989e-01
         - -1.7168582223026943e-01
         - -1.7499242605174650e-01
         - -2.6570840620642011e-01
         - -4.7414128445971059e-02
         - -2.2694460185208992e-01
         - -7.6395093766162669e-01
         - 4.1803324157140975e-01
         - -1.6195421857749585e-02
         - -6.1776986792180022e-01
         - -8.1559175209439638e-01
         - 4.0758151133256648e-01
         - 5.5838817508766725e-01
         - 2.6323776310112901e-01
         - -2.0808555635821596e-01
         - -9.4506641920131945e-02
         - -2.8630191616482770e+00
         - 1.8691647339128462e-01
         - 5.1215069944928138e-02
         - 8.6624494874466301e-02
         - -3.5364958511819324e+00
         - 6.6165788580175022e-01
         - 1.3090830937237958e+00
         - 9.5201452623847410e-02
         - -5.3063247267670775e-02
         - -2.2571682768262247e+00
         - 1.7087442567328712e-01
         - -6.7464362141593259e+00
         - 1.0812428739335712e-01
         - 1.9979949980142531e-01
         - 1.7519398326496391e-01
         - -5.1216806724935560e-01
         - 1.5594516433333366e-01
         - 6.8522358282750351e-01
         - -1.6319781391820463e+00
         - -9.7233909466619695e-01
         - -1.4760802116206821e+00
         - 5.2275450023503545e-01
         - 1.9005723246974013e+00
         - 1.5643130493899779e+00
         - 1.2208632751608371e-01
         - -2.6398831707944632e+00
         - 1.9656183193390117e-01
         - 2.6459987269248114e-01
         - 4.3092443682750758e-01
         - 3.1879937708924516e-01
         - 1.4310896016924020e+00
         - 6.0599343503790226e-01
         - -1.4750271202986903e-01
         - -1.0633597091557794e+00
         - -1.3989573975022633e+00
         - 1.4723746433268692e-01
         - -1.5883667771143328e-01
         - 9.3886502876965997e-02
         - 9.4795769210545069e-02
         - -1.8315302009702800e-01
         - -2.3761274026678586e-01
         - 4.0797949648523196e-01
         - -2.0571111680220308e-01
         - -4.0779603068617554e-01
         - 1.2802616270999767e-01
         - 2.8255204358570157e-01
         - 2.5843480040970251e-01
         - 2.5303600006304794e-01
         - -9.3264675119302864e-01
         - 2.2545203367463484e-01
         - 3.0308543521562692e-01
         - 4.3159344644923142e-01
         - -2.0662824503025651e-01
         - 1.4206419292116232e+00
         - 2.9319574395478160e-01
         - -2.6022793132728861e-01
         - 1.7292373769109759e-01
         - -9.7494251567839885e-01
         - -6.7061168063563015e-01
         - -2.4745565550227524e-02
         - 7.1329080344083806e-02
         - -1.4549854882962901e-01
         - -5.1008848611378343e-01
         - -6.1565905080891770e-01
         - 1.1217601171772833e-01
         - -4.4100097186744847e-01
         - 3.1362629844165307e-01
         - -1.0855075481516163e+00
         - 3.8622839937703485e-01
         - 1.5117690976347284e+00
         - 2.1164559061971606e+00
         - 9.0813228953225633e-01
         - 4.7229659497456056e-01
         - 1.1078495409227618e+00
         - -5.3497125380335009e-01
         - 1.0643811196071906e+00
         - 1.1002826427870867e+00
         - 1.5959824640783868e+00
         - 2.5575760403443470e+00
         - -1.0051680498304509e+00
         - -1.3908110922416156e-01
         - -2.0665831085867299e+00
         - 6.9297863598423715e-01
         - -9.4650954521324548e-02
         - 3.5131445568960751e-01
         - -1.6959852050416144e-01
         - -2.0571816449901353e-01
         - 8.3948766236750771e-01
         - 6.5440684515867276e-01
         - 9.2822965047203643e-01
         - 6.8533882689720338e-01
         - -4.2244525870332017e-01
         - -1.6093375313580868e-01
         - 2.0342609727361374e-02
         - -7.6314792979590140e-01
         - -3.4501844838048613e-02
         - 2.6815351301611556e-01
         - 2.3408026574589155e-01
         - 3.0403834400560120e-01
         - -2.5571572068610116e-01
         - -1.3385973376309640e-01
         - 9.8536150755430552e-01
         - 1.6230531680075236e-01
         - 4.8906347624554103e-01
         - -7.9644364656993871e-03
         - -1.6292227277852638e+00
         - 2.4212130862123229e+00
         - -6.5539876965235916e-02
         - -1.3143656251711425e-01
         - 2.3716584798694770e-01
         - 5.7211923202868753e-01
         - -1.9714163127706794e-01
         - 1.2554335146802106e-01
         - 2.9904017052764098e-01
         - -1.4485230201718458e+00
         - -9.3747426167376957e-01
         - -1.3985196010438983e-01
         - 1.3639835693047992e+00
         - 1.0667307807603732e+00
         - -5.8277208996337544e-02
         - 1.1861106837878583e+00
         - -5.8676103198273301e-02
         - 3.0941889488552570e-02
         - 1.5088859407731865e+00
         - -5.6337468601469154e-01
         - -3.5332172635137798e-01
         - 1.5534087798714026e-02
         - -1.4417669477718342e+00
         - -4.5956234686238984e-01
         - -4.3407044571507958e-01
         - 2.6657778139023308e-01
         - -1.8656798454451468e-01
         - 5.0409467662679064e-02
         - -5.1939898024071407e-01
         - 3.2280577924330345e-01
         - -4.6965270388368047e-01
         - -1.7016598739369913e+00
         - -1.8690982832204239e+00
         - -3.8893053011018192e-01
         - 3.1841848422217663e-02
         - 4.8205930417126008e-01
         - 1.0659687084741307e+00
         - -3.8096097606360757e-01
         - 5.3887443092249154e-01
         - -8.7172148171700414e-01
         - 1.0063025433125929e+00
         - -1.1055967850295947e+00
         - -1.4562744169406929e+00
         - -5.4506188066141026e-01
         - -5.1001017256815887e-03
         - 1.8604167213852682e-01
         - 1.7597637691916027e-01
         - 3.1767477849528034e-02
         - -4.1785897568958923e+00
         - 2.8320097453927767e-01
         - 4.3635883309448037e-01
         - -6.5281895550960400e-01
         - -8.8870649442015826e-01
         - 7.6867238382372827e-01
         - -3.7548790220934497e-01
         - 6.0250361336006431e-01
         - -1.1865987821155635e+00
         - -4.3508772285834024e-01
         - -3.0827717860484399e-01
         - 5.9064926695351058e-02
         - -6.0548812867607460e-01
         - -8.7063983467872408e-01
         - -7.5361685336878248e-01
         - 3.1668260066733267e-01
         - -8.9125913379178590e-01
         - -5.2469856750978962e-02
         - 1.1487536235091060e+00
         - 3.3451952960942799e-01
         - 5.8222589286662951e-01
         - 4.6528653537965581e-01
         - -8.3121238274883247e-01
         - 2.9971704892167067e-01
         - 6.4224953703295806e-01
         - -4.2428829848231109e-01
         - -8.9732394279213734e-01
         - -3.9915658256507419e-01
         - 4.4196908096536508e-01
         - 4.4169219544192284e-02
         - -3.1098458070660088e-02
         - 1.4743786164046155e-01
         - -3.6544829698824971e-01
         - 1.4761628737069224e-01
         - -4.6462369683162967e-02
         - -9.6041106293168373e-03
         - 1.0190343452291124e-01
         - 1.0371564977818069e+00
         - -1.4639157869743773e+00
         - -1.9625358235807219e-03
         - 1.3135868226834635e+00
         - -2.1529497632000927e-01
         - 1.0660888500092083e+00
         - -3.2225622299531416e-02
         - 2.2944095055429556e-01
         - 4.6399031408359220e-01
         - 4.4094602020074501e-02
         - 5.3307966737252355e-01
         - -1.6991339511166476e-01
         - -4.9996599333209368e-01
         - 2.6740476072839681e-01
         - 4.4141625318592653e-01
         - 2.2822562546367675e-01
         - -2.7467155618549965e-01
         - 3.7093979841167905e-02
         - 2.4312332139623352e-01
         - -1.5318610860738431e+00
         - -3.0310467613833442e-01
         - 4.2815351007935004e-01
         - -1.2088054792486527e+00
         - -2.2667452913782915e-01
         - 6.0069567496515108e-01
         - 3.5592583074696593e-01
         - -3.4256788104973640e-01
         - -7.8461883797213727e-01
         - -5.7840848191412919e-01
         - -1.8685889504310160e+00
         - 5.9458153138211151e-03
         - -3.4468328655532215e-01
         - 4.5316648569284579e-01
         - 1.7160007611242054e-01
         - 4.1170515776558397e-01
         - 3.7032754230842357e+00
         - -4.1371875121402107e-01
         - 2.1183284947407011e-01
         - 1.8066757315714838e-01
         - 1.2774602418502012e+00
         - -6.4376307490319307e-01
         - 9.4594999064886387e-02
         - -4.1049554434450541e-01
         - 6.2569541949045004e-01
         - 5.6559344883360063e-02
         - 1.6061612701353074e+00
         - 2.2079572966897009e-02
         - -1.1658462512984656e-01
         - -1.0660715189755035e+00
         - 2.4122313381913896e-02
         - -9.9325736162541950e-02
         - -1.5558380084258863e-01
         - -3.8631078035449201e-01
         - 3.4748279648053237e-01
         - -7.2669581904382885e-02
         - -6.3655453683949453e-02
         - -1.4478339983215569e+00
         - -1.0604083037228085e-01
         - 7.3488653036884899e-01
         - 9.8875871687844577e-02
         - -1.6435141696608195e-02
         - -5.4346002973211183e-01
         - -5.4600831129175140e-03
         - -1.4581669608570456e+00
         - 7.2500666447916839e-01
         - 1.2564695950908825e-01
         - -5.9192258991323399e-01
         - 1.4424586278153158e+00
         - -3.4917536219303064e-01
         - -2.1095814231145715e-01
         - 1.3516193567833992e-01
         - 1.2516865766435692e+00
         - -3.3166380958992764e-01
         - 2.0156521577768061e+00
         - -1.1128733639328624e-01
         - -5.1572276724302624e-01
         - 9.0852662853692279e-01
         - 1.8850169586573853e-01
         - 3.3484685732188385e-01
         - -3.5749499194626294e-01
         - -7.1348510811660892e-01
         - 8.5508619975337996e-01
         - 3.5656874920944237e-01
         - 1.5507784528074555e+00
         - 1.0889125933124639e+00
         - -6.2544127084366685e-02
         - -7.5936810128934928e-01
         - -1.2967548263999940e-01
         - 6.0673065215921404e-02
         - 2.0902166862043881e-02
         - -1.3387953167459576e+00
         - -6.1360513894983904e-01
         - -6.5306727477430704e-01
         - 5.1696139068078018e-01
         - 1.3337846128033837e-01
         - -1.3764688773195531e-02
         - -1.1460206195492997e+00
         - -1.1002908536019220e+00
         - 1.7589658167151470e-01
         - -1.1384150859073783e+00
         - -8.9606994007332774e-01
         - 1.7142011246738628e-01
         - -4.3157512997138298e-02
         - -1.9732996598247560e-01
         - -3.3548541903108631e-01
         - 9.5894952654659360e-02
         - -3.8761588332248409e-01
         - -4.2782160702361974e-02
         - -8.9724374571084264e-01
         - 1.4040271745547686e-01
         - -6.3108517947237031e-01
         - -8.4594975902860081e-01
         - 2.6127216926352614e-01
         - -5.4161899746950203e-02
         - -7.9498104909232581e-01
         - 5.2582351413969990e-02
         - 3.0823000565639014e-01
         - -1.2544696794966188e+00
         - 3.6272317402467130e-01
         - -2.2605240137949772e-01
         - 3.2426770963232093e-01
         - 9.1257944319579690e-02
         - -7.8784247184300632e-02
         - -1.9665294399556077e-01
         - 1.8138078054408402e-01
         - -2.5233885364414965e-01
         - -1.0379266482601686e+00
         - 2.5550202439735697e-01
         - -7.5115714337527717e-01
         - -3.0884450563964821e-01
         - 1.8488807740069904e+00
         - -3.3106384487251457e-02
         - -1.1955202615837170e+00
         - -1.5006910069041270e+00
         - -5.7394600343752766e-01
         - 2.1202113281502748e+00
         - 3.7816456200452364e-01
         - 1.1340041963524947e+00
         - 1.0716951297853061e+00
         - 9.3262535840874372e-01
         - 2.6077773022344980e-01
         - 5.7337832202985128e-01
         - -4.9896818774602802e-01
         - 2.2540927418981596e-01
         - 9.7165377261683186e-02
         - 8.5674100421472821e-01
         - -1.3598974638790553e+00
         - 9.3708594036980242e-01
         - 4.7673101891209158e-01
         - -5.7251678666497052e-01
         - 2.2366410068342138e-01
         - 2.0519056909202109e+00
         - -3.7502292692641115e-01
         - 3.2957354534365663e-01
         - -5.1436466164008310e-01
         - 7.1392183178151414e-01
         - -8.2760629586467169e-02
         - 1.0989432851355594e+00
         - 5.2743457802326678e-02
         - -3.2409880846219902e-01
         - -3.4681625874101646e-01
         - -1.8101711924293379e-01
         - -7.5472296508990488e-01
         - 9.5477965342125504e-01
         - -4.7803408582632566e-02
         - -5.6967723644689161e-02
         - 6.4350706556203729e-01
         - -1.3619808669864519e-01
         - -1.2846110156438439e+00
         - 5.4654425691401975e-01
         - 1.4207373349719183e+00
         - 2.3849080475651405e+00
         - 2.7795029393532877e-01
         - -5.8039019129604652e-01
         - -4.0528291345879014e-01
         - -2.3792764743617251e-01
         - -4.5252084347870386e-01
         - -2.3528922720488751e-01
         - 1.0007158112050019e+00
         - 2.2488189382439119e+00
         - 9.9590441297077850e-02
         - 1.0917966995839321e+00
         - 8.2875155896292296e-02
         - 8.1256471376545114e-01
         - -3.4881225213561307e-01
         - 1.9894480762212261e+00
         - -1.9791650038572442e-01
         - 6.8207923057434439e-01
         - -2.7241747431253527e-01
         - -1.8963727830059238e-01
         - -7.8325522418076465e-01
         - 1.6272681463205016e-01
         - -1.0589279296657882e-01
         - 1.2274347664867782e+00
         - -9.3691144086710954e-01
         - -2.7600390380125106e-01
         - 2.3916311211608887e-01
         - -1.4551374600238923e-01
         - -2.0664173527729066e-01
         - 2.1393301618387695e-02
         - 2.2832196826052686e+00
         - 1.1928524845614943e+00
         - 1.8508454297287685e-01
         - 9.4618500079991674e-01
         - 8.4524846161644074e-02
         - 1.0763726337823179e-01
         - -1.3079131365098902e+00
         - -1.7026540329878967e-01
         - 2.2328806541065123e-02
         - -4.3872800021127673e-02
         - -1.4426993626547582e+00
         - 1.0834404147684082e-01
         - 1.6934046613079315e-01
         - -1.4725668302066497e-01
         - 2.5094529134857160e+00
         - -3.5182497482600117e-01
         - -1.5605719277848751e+00
         - -1.4321090437037289e+00
         - -3.0044627100586141e-01
         - -2.0395601863008403e+00
         - 9.5024509088442191e-02
         - 5.7874642242903540e-01
         - -2.8971212641555932e+00
         - 1.4390917922813118e-01
         - -2.3385171065891872e-01
         - 1.1774590409600820e-01
         - 1.7367361639595427e+00
         - -1.7902188539637173e-01
         - 6.2444517698687585e-01
         - 1.7254097228454883e+00
         - 1.0908260046710954e+00
         - 2.0824856421462181e+00
         - 5.9239183445200705e-01
         - 2.2200418858859527e+00
         - -2.5570477387849444e-01
         - -5.3054121014017341e-01
         - 4.7044284643893750e-02
         - 4.1993070203690253e-01
         - -3.3640644948766912e-01
         - -1.7861054988410621e+00
         - 2.1648681173470708e-03
         - 1.5760166691134664e-01
         - 1.8030411895441489e-01
         - -1.4360900101861438e+00
         - -8.1029833314123667e-02
         - 2.2740361420573735e-01
         - -3.0541908230767811e-01
         - -1.3820170562907941e-01
         - 9.3993413645066626e-01
         - -6.0618079234074113e-02
         - -1.0736822702678030e-01
         - 1.8869086671091259e-01
         - 2.0014855304607525e-02
         - -4.1659250422945265e-01
         - -2.3979410655932840e-01
         - 1.8526160889523269e+00
         - -1.8615232728324100e+00
         - 1.2300538738352462e+00
         - -1.0552321370569684e+00
         - 1.0960017891543951e-01
         - -3.1943739568107649e-01
         - 1.1215870667507828e-01
         - -1.0144796248512379e-01
         - 1.9597497750423993e+00
         - 5.1066928131369788e-02
         - -1.2477284774506203e+00
         - 7.0356307961613973e-01
         - -1.9577507789942781e+00
         - 6.2374254394391804e-01
         - 2.3969517368539731e-01
         - 5.6307851370315087e-01
         - 1.4662888572478106e-02
         - -1.1054453355372225e+00
         - 2.7861499255275912e-01
         - -1.5353927512647306e-01
         - 1.8249281563416979e-02
         - -3.6276672377552288e-01
         - -1.1860908712179064e+00
         - 8.3688977539013909e-01
         - 1.1660107702459388e+00
         - -2.1482778366164940e-01
         - -2.7525109158734162e-01
         - -8.0577441276545503e-01
         - -1.1535326093935534e+00
         - 1.3729134493697563e+00
         - -5.6148592269565234e-01
         - 1.7723138211447709e+00
         - -2.6415083574181888e-02
         - -5.5812636661935622e-01
         - 9.4859028972128723e-01
         - 4.1855745298093550e-01
         - 7.8704112678156268e-01
         - 9.1408453569434822e-01
         - -2.6122191901994105e+00
         - -2.2245528796103362e-01
         - -3.0316851294934938e-01
         - 8.3406460906268254e-01
         - -6.4934772617166403e-02
         - -2.7308252995188158e+00
         - 7.0944075337327761e-01
         - -3.2574195084842761e-01
         - 2.8122860069753802e-01
         - -6.9198592532551145e-02
         - 2.8804937717483325e-01
         - 2.3690675104784620e-01
         - -3.3674823412005206e-01
         - 1.7410438850372095e-01
         - 1.4803776802302634e-01
         - -6.7774672486909504e-01
         - -7.6615328140502897e-02
         - -1.5122864503851907e+00
         - -1.2214921183407152e+00
         - -1.5723105966333484e+00
         - -6.0224661255545986e-01
         - -1.8639715157219539e-01
         - 4.7969450415080467e-01
         - 1.8107032836979804e+00
         - -1.9039333302669514e-01
         - -2.7009689671341147e-01
         - 7.8920727657094722e-02
         - -1.2019070671161078e-01
         - -1.9279511708736680e-01
         - 1.5765926227152574e-01
         - 3.2830938525376990e-01
         - 7.8383882040207919e-01
         - 8.5749363900424735e-01
         - 1.8028849589384417e+00
         - -2.7195786667081390e-01
         - -2.1020603752427958e-01
         - 9.5894998645648588e-01
         - -2.0455451527318196e-02
         - 7.0105615773479757e-01
         - 4.8276850798942700e-01
         - 2.6116352165451839e-01
         - 4.2094177257838111e-01
         - -1.0210138046559289e+00
         - -5.5363124487398403e-03
         - -3.0060383880612862e-01
         - 6.8125179477165476e-01
         - 1.1642073469108448e-01
         - -1.6548967994929623e-01
         - 8.8617906296325183e-02
         - 3.3370529100373469e-02
         - 1.6660156051768413e-01
         - 2.9482411455035418e-01
         - 6.2767945197535452e-02
         - 1.9743786082088991e-02
         - 4.8232871701476068e-03
         - 3.9319998525892325e-01
         - 1.4630961875954565e+00
         - 1.5612191724448773e-01
         - -1.0900792924098619e-01
         - -4.2398856932104889e-01
         - -2.6793101109506192e-02
         - -1.0117430496121156e+00
         - 7.1246365998745953e-01
         - -5.4982812338661302e-01
         - -3.5948712654038945e-01
         - 2.0223298441757623e-01
         - -3.8627601641545428e-01
         - 2.2647742092078423e-02
         - -3.2031384745568069e-02
         - 2.3678353464132793e-01
         - -1.3631396798324720e+00
         - 8.3788896821192310e-02
         - -4.6662851105385594e-02
         - 1.9245129382593040e-01
         - -5.8178138506003368e-02
         - -6.4572768959974935e-02
         - -1.6866480136642306e-01
         - -5.1145165662397196e-01
         - -9.1052713116759987e-01
         - 2.3955141277791797e-01
         - -7.4338433766772094e-01
         - -1.0266034181957970e-01
         - 3.1895245514458537e-01
         - 3.2852213322589813e-01
         - -3.0544651396943362e-01
         - -3.3873727336536386e-01
         - 1.2968248391010029e-01
         - 1.7494408686749918e-01
         - 4.5559352955018119e-03
         - 1.7578368199548308e-01
         - -6.3367680248849578e-01
         - 2.3035843494962980e+00
         - -8.7331208708477193e-01
         - 2.9445907137867028e-01
         - -7.4647254356252912e-01
         - -1.1611792871623743e+00
         - 5.6564269066683970e-01
         - 7.0609071292464476e-01
         - 2.1448500463168926e-02
         - -2.0845549621540366e-01
         - -3.0547570128301900e-02
         - -8.2449901857683749e-02
         - 1.5066526777198858e-02
         - 9.7374160094595971e-02
         - 1.0645132057258035e-01
         - 1.3560310258789157e-01
         - 2.1447688618374865e-02
         - -8.2598555591221409e-02
         - 7.1520904079501846e-01
         - 2.1799231487162804e-01
         - 6.2442878025686210e-01
         - 6.6824419998766094e-02
         - -9.1693747590248698e-01
         - 3.6450804856302060e-01
         - 4.7173854963419831e-02
         - 2.7803261737987522e-01
         - -1.9740362084789406e-01
         - -9.9271686536881154e-01
         - -4.4496054159358944e-01
         - -2.5860564428190419e-01
         - -5.4554595690219782e-02
         - 2.0083061291383492e-01
         - -1.9086610460143261e-01
         - -1.0317034541765993e-01
         - 2.9242612507155835e-01
         - 2.7661710882665835e-01
         - -3.3136358190627607e-01
         - 1.1368558597643630e-02
         - 1.4616128445187218e+00
         - -6.7566745933749273e-01
         - -1.1212940306749357e-01
         - 2.6186555872917272e-01
         - -5.6414937750060630e-02
         - 1.6170293136896657e-01
         - -5.3196698453272162e-01
         - -5.2780359837575186e-01
         - 1.7054948759129093e-01
         - -1.4897236326385996e-01
         - 9.0493270258686628e-02
         - 9.7533336580530552e-02
         - -4.6848062553043057e-01
         - -4.3540544999661680e-02
         - -1.0785262523574892e+00
         - 2.5174631401204445e-01
         - -4.5501498909395172e-02
         - 7.8078393062097920e-02
         - -3.0808399541989717e-01
         - 5.8064864053759802e-01
         - -2.0674909234657099e-01
         - -6.9167861669673064e-02
         - 2.6190941201570112e-01
         - -4.6762158264225195e-02
         - -1.0162612716910686e+00
         - 2.3897692113101568e-01
         - 2.0762041296508701e-01
         - 6.9806125580374578e-02
         - -7.6143272016177391e-02
         - -2.1682676671155496e-03
         - -1.4610836269367315e-02
         - -1.3928414915204301e-01
         - -5.8819573909715352e-02
         - -2.2604938514440753e-01
         - 4.3693070018794672e-01
         - -2.4141176984912285e-01
         - 2.5858944339222728e-01
         - 9.4776782233799192e-02
         - -2.8112064468813458e-01
         - -1.0479068869149036e-01
         - 2.9325149680089274e-01
         - -1.4663129445357162e-01
         - -6.6484200005370964e-01
         - 4.7243272176799474e-02
         - 7.2393519309338253e-02
         - -1.7448026826284144e-01
         - 2.3576322949508116e-01
         - 3.3723322399875899e-01
         - -1.6287058660240811e-01
         - -7.1519227722951495e-02
         - 3.8970256969467909e-01
         - -9.9028808794172279e-02
         - -1.9446394378796936e-01
         - -1.0271498612351676e-01
         - 4.9736843909329392e-01
         - -5.8172140520669291e-01
         - 1.9356014434347570e-02
         - -3.6315326777483264e-01
         - -5.9029641242263775e-01
         - -6.9256822354883985e-01
         - 5.1737652878937390e-01
         - 1.9195957360236551e-01
         - -1.5663431128094180e-01
         - -3.9634962921429295e-01
         - -3.6074627017672034e-01
         - -5.6100698972274943e-01
         - -1.2097697905199618e-01
         - 1.1177502398615717e+00
         - 9.7144810079424382e-02
         - 6.1066438747170693e-01
         - -3.8457826023084546e-01
         - -7.4044239821032332e-01
         - 1.9097907135341703e-03
         - 2.5401236441601516e-01
         - 9.2823223537934693e-02
         - -4.8661047796407997e-01
         - -2.5321883600572204e-01
         - -1.0827956006714182e-01
         - 2.5902155371351382e-01
         - -3.7948083851979136e-01
         - -1.1551389492312324e-01
         - -3.7277752393599893e-02
         - -2.7024628852254778e-01
         - 3.1321983324563742e-02
         - 3.2839206682771349e-01
         - 3.5010036728012936e-02
         - 1.7993342350830821e-01
         - 2.0585362749655975e-01
         - -1.9771734946364908e-01
         - -5.0645536075503661e-01
         - 5.1013422929986130e-01
         - 5.5849203474406993e-02
         - 2.1360803049636098e-02
         - -5.0547177868242879e-02
         - -3.6843919949730974e-01
         - -3.5761052334818177e-01
         - -1.4390847991933250e-01
         - 1.6023340676492362e-01
         - -1.5128773877478427e-02
         - -2.3544038923710497e-01
         - -1.6125345004645056e-01
         - -1.0513637092729582e-01
         - -2.7958305330775751e-01
         - -1.4058068438570647e-02
         - -1.9543369416051956e-01
         - 1.6429635505298215e-01
         - -2.6744499543603589e-01
         - 2.8184016514898452e-01
         - -3.9186805705517230e-01
         - -3.2499491265664099e-01
         - -1.8123208394310331e-01
         - -6.2834927242843619e-01
         - -5.3873420704473256e-02
         - -1.3197879825006553e+00
         - 2.5179374053725225e+00
         - -4.1873019471988909e-01
         - 2.0342715450704643e+00
         - -1.5148269449466778e-01
         - -4.3027668215863385e-01
         - -2.5566454224300417e-01
         - 3.6219675983540769e-02
         - 6.7574486338263337e-02
         - 1.0286969556383370e-01
         - 1.8028190736029556e-02
         - 2.8815122961551959e-01
         - -2.4160333458954866e+00
         - 4.3079536922700848e-02
         - 7.5798005693334869e-01
         - 4.0802199154696128e-01
         - 8.1997702044621468e-01
         - -1.5812126046447901e+00
         - 1.2265062757392645e-01
         - 5.8536092489956289e-02
         - -1.7408169314476407e+00
         - -1.4502507136353813e+00
         - 7.1427094255535950e-01
         - 1.6258273784393176e+00
         - -6.5480248033171695e-01
         - 3.8666054936396216e-01
         - 1.9516743037641518e-01
         - 7.0322480771177553e-01
         - 6.1525476053296746e-01
         - 4.9320869019834607e-01
         - 4.1022232390476410e-01
         - 6.1458710047941581e-02
         - 2.2178389198848475e-01
         - 9.0889174119749139e-01
         - 6.2500312592969998e-01
         - -1.4786844302827464e+00
         - 7.7373198760161344e-01
         - -1.3159417366715194e+00
         - 1.9798353591995027e-01
         - 6.9055116027897512e-01
         - -6.0542035835949093e-01
         - -4.5406042343886260e-01
         - 4.5039930158289088e-01
         - -1.1505974977462896e-01
         - -1.7386232209184802e+00
         - -1.7486853238439442e+00
         - 1.2149319107108254e+00
         - -1.2363379735283493e+00
         - -9.0158303626354930e-01
         - 1.1959502043817603e+00
         - 1.8243031578936136e-01
         - -1.7769675868232666e+00
         - -1.4108218127719530e-01
         - 2.6431254940847021e-01
         - -7.7851754578744237e-01
         - 8.5693400076603921e-02
         - -1.9177810528541775e-01
         - 1.2072809740659640e-01
         - 2.0400371323939884e-01
         - -2.1107089453459005e-01
         - -1.0478292379200953e+00
         - -6.3516159763824756e-02
         - 5.0053407767846791e-01
         - 9.4272884407217525e-02
         - -1.2158829201842650e-01
         - 3.3608882088700254e-01
         - 1.1263329685207217e+00
         - -5.7678591548132110e-02
         - -3.1879631568693761e-01
         - -2.0545031883137597e+00
         - -6.6467556018611673e-01
         - -3.2381751452734683e-02
         - 4.0808882635786398e-01
         - -1.6814370844849932e-01
         - -8.3728180851752126e-02
         - 3.9623191637714716e-01
         - 3.2425252007234562e+00
         - 3.5033401204312653e-01
         - -1.0775861669061557e+00
         - -2.5806607978625289e-03
         - -1.3289244277215786e+00
         - 6.2609777328269911e-01
         - -9.0195300282638713e-01
         - 7.3302150714357717e-01
         - 2.2724661705677712e-01
         - -1.9250878550995562e-01
         - 1.3696925349224881e-01
         - 1.5028736526692030e+00
         - -7.8608970429470226e-01
         - -2.5823614042837789e-01
         - -3.0214240733178543e-01
         - -8.6967351341244603e-01
         - -6.2195649033520017e-01
         - 2.9201096389243275e-01
         - 1.3382975553289336e+00
         - 1.2005194519420503e+00
         - -4.3686604485762059e-01
         - 5.7196461850857339e-01
         - -6.9149720022354366e-01
         - -6.3640464068247882e-01
         - -4.5457377151359268e-01
         - 9.3578842637445436e-01
         - -7.9420192858073446e-02
         - -1.8156688005865440e-01
         - 2.8089711334238210e-01
         - 6.7351446461535547e-01
         - 3.2449086381512038e-01
         - -4.3762025795736514e-01
         - 7.3298843407935080e-03
         - -1.0169213738952916e+00
         - -8.7768079600831017e-01
         - -2.1448075254724754e+00
         - -1.3067200946813215e-01
         - -4.0591589401095869e-02
         - -8.0513363737931731e-01
         - 1.6105905997679912e-01
         - -5.3461288043481138e-02
         - -2.8470936295392779e-01
         - 3.3071604173018931e-01
         - -2.0575302543955726e-01
         - -8.3640285016070870e-01
         - -1.4895559721167295e+00
         - 1.2132133043350585e-01
         - 6.4418702446154985e-01
         - 9.0603920661128534e-01
         - 5.5020254072073771e-01
         - 3.6440404940549070e-01
         - 6.3465437308978045e-01
         - -4.4254309713446294e-01
         - 8.9481559331348592e-01
         - 7.2652008243353583e-01
         - -1.6166947820235509e+00
         - -2.6172999291681281e-01
         - 2.1932778188211728e+00
         - -4.9083124750342844e-01
         - 1.4249845179990198e-01
         - 2.2315037128059018e-01
         - 2.4217571958457279e-01
         - 2.3102450847746356e-01
         - 6.9877715259410078e-01
         - 3.9248853190345745e-01
         - 3.5841634111402265e-01
         - -5.0255130398688408e-01
         - -9.9548397042749914e-01
         - -3.8190230927063418e-02
         - 7.9881244360682080e-01
         - -1.2864262251542937e+00
         - -8.1125229942017896e-01
         - -3.5953775350058548e-01
         - 5.2955955901320972e-01
         - 2.3857648215222675e+00
         - -2.5387071620593149e-01
         - -1.1977974172472188e+00
         - 1.7152250728194549e-01
         - 2.4656632344496714e+00
         - 1.0645110400540929e+00
         - 2.8344453814339565e-01
         - -7.5990323651529923e-01
         - -5.7840331890532326e-01
         - 2.2551900630415851e+00
         - -1.0539390987580985e-02
         - 3.0080946416679399e-01
         - -1.7068254853969842e+00
         - 3.2934834104767607e-01
         - 2.2009830592148729e+00
         - -1.4246320239766859e+00
         - 5.4123314987811688e-01
         - -1.7385802428426406e-01
         - 9.3606340149289258e-02
         - -7.3628934946879709e-01
         - 6.5313928539912011e-02
         - 1.5317553189750807e-01
         - 1.8809414332981311e-01
         - -5.4577797459845878e-01
         - 3.2478792571254556e-01
         - 7.5326927729499740e-02
         - 3.1120617603699281e+00
         - 5.2347068209121062e-01
         - 1.8768546392794058e-01
         - 1.1256829887102549e+00
         - 1.4339471441144247e-01
         - -3.1132902174272278e-02
         - -1.3959802770779026e+00
         - 8.1635248895747592e-01
         - -6.6206325815166323e-01
         - -3.8195381759149905e-01
         - -1.2148981655598794e+00
         - 1.6196109092081123e-01
         - -3.0545571541768052e-01
         - 1.1318610999063778e+00
         - 3.3757503301045622e-01
         - -9.2625475548265904e-02
         - -2.0493059481738043e+00
         - -8.8407636389867272e-01
         - -1.9060346268123114e+00
         - 2.3607450945499270e-01
         - -4.2753056309306864e-01
         - 9.3671668529966634e-01
         - -8.8576098196410089e-02
         - 1.4645743766853997e-01
         - 4.6884163917927664e-02
         - -5.7965324541509988e-01
         - 1.9256454446306966e-02
         - 1.2924651634254936e+00
         - -4.2420631678154991e-01
         - -1.0183957787494539e-01
         - 6.4856183810625315e-02
         - -5.9733843860827392e-06
         - -1.0051251381952118e-01
         - -1.5633428154565526e-01
         - -6.2828193584288414e-02
         - -5.1072862657392237e-01
         - 2.1649981201537430e-01
         - 3.4616262527762387e-01
         - 1.3221696662791459e-02
         - 4.6503183693658090e-01
         - 1.6049577254722770e-02
         - 3.8242417820166311e-02
         - -3.4222015664292854e-01
         - -1.7963362195484425e-01
         - -1.2984919857112426e-01
         - 6.3865800104847492e-01
         - 3.6528031587002785e-01
         - -4.7302389363075031e-01
         - -4.3793306575377396e-02
         - 6.5682980273983393e-02
         - 8.8868348857850207e-02
         - -3.9604213681005396e-01
         - -2.9955182635610512e-02
         - -2.1270971788196310e-02
         - 6.4103596007634869e-04
         - -1.5891144518649250e-01
         - -9.9562968101170268e-02
         - -2.2303303292386331e-01
         - -2.4627719656214864e-01
         - 4.1403899333719196e-01
         - 4.9976292061814725e-01
         - -4.3089440616843733e-01
         - -1.6068396614990640e-01
         - 1.9813052706140113e-01
         - 1.4590457894467782e-01
         - -5.1384761791258921e-02
         - 9.3774667838293069e-01
         - -4.0628882095726948e-01
         - -8.3219493469255978e-01
         - 5.2743580003722845e-01
         - 1.5562669560259479e-01
         - -8.8973142579950974e-03
         - -6.7889847302695594e-01
         - -5.0122378880130958e-01
         - 1.3698834219916940e+00
         - 2.9440397635335508e-01
         - 8.7804456049533335e-03
         - -2.9460459035975045e-01
         - 1.1356223443718021e-01
         - -1.6080435357633283e-01
         - 2.1196021089625691e-01
         - 3.4947435148556485e-02
         - -2.8349204358665742e-01
         - 5.4793524121725090e-01
         - 3.2051638974810465e-01
         - 2.5053226190931815e-01
         - -7.0476299149683536e-02
         - 2.2384779746773609e-02
         - -4.5955629582867773e-03
         - 8.1882430481518373e-02
         - -7.5687807919993422e-01
         - 2.0462789710080018e-01
         - 1.2337889087970667e-01
         - 7.7077891209659288e-01
         - 1.3680737789092079e-01
         - -2.7177217848633362e-01
         - -5.3213816569257291e-02
         - 2.3614131748968297e-02
         - 9.1264732271143245e-01
         - -1.7228960948895702e-01
         - 5.5126074067308661e-01
         - -3.1695920522857962e-01
         - 2.2400221230153611e-01
         - -3.1872589795941030e-03
         - 9.1159958953973386e-01
         - -8.4477198278965424e-02
         - -3.6710936934670015e-02
         - -2.1789088841429735e-01
         - -5.3144268260549278e-02
         - 2.6285505080199384e-01
         - -9.5252318543761649e-02
         - 2.1609230479780832e+00
         - 3.9255166716349765e-01
         - 1.3095871879110157e-01
         - -2.3092997501005730e-01
         - -7.1670069717321053e-02
         - -3.9038158135505446e-01
         - -1.3924856137103567e-01
         - -2.0162210036877404e-01
         - -1.3918952419511910e+00
         - -4.6028793435258963e-01
         - -4.1985976880675790e-01
         - -2.5442660420653457e-01
         - -4.3908540186060113e-01
         - -9.4638142305376788e-02
         - -6.4941223657530647e-02
         - 2.2105886025127111e-01
         - -1.2803731316656905e-01
         - -2.0510167523144568e-01
         - 1.5795728435633966e-01
         - -3.7872230082031200e-01
         - 1.5730437708913075e-01
         - -3.1639262063022290e-02
         - 3.6572534571894105e-01
         - 4.8649415481642361e-01
         - -8.0420908410960878e-01
         - 3.0402371097066538e-01
         - -1.6549738317125185e-02
         - 4.6362107290206922e-01
         - -1.6906012015578547e-02
         - 9.8253232101615864e-02
         - 4.8746136663208331e-02
         - 1.2919783948350269e-01
         - -4.2093737564547956e-02
         - -4.5008856661573636e-02
         - -5.4468572283138242e-02
         - -6.9373872851593044e-01
         - -2.9909490659765581e-01
         - 4.5808491525448419e-01
         - -7.8148216260527675e-02
         - -2.3782976640277488e-02
         - -5.9761663816662591e-01
         - 2.9452353718926391e-02
         - -4.4461263963781394e-01
         - -2.2509383327700352e-01
         - -2.7140073694833117e-01
         - -2.9551841104171001e-01
         - 2.6830850529753442e-01
         - 5.4414747475540627e-02
         - -1.8282620161911359e-01
         - -1.8675781038003497e-01
         - -5.3616896910248801e-01
         - 1.0922343166789585e-01
         - 1.2555180662036863e-01
         - -1.5406092952070750e-02
         - 4.5906515540115839e-01
         - -1.0999387963627788e-01
         - 2.2090096713005031e-01
         - -3.2143084082185740e-02
         - 2.8131087025813115e-02
         - -3.9414621117118809e-01
         - 1.0617146355388581e-01
         - -1.0250072465973405e-01
         - -2.8136671092230392e-01
         - -7.0906923236399452e-02
         - 2.1177796998111389e-01
         - -4.5432285891153612e-02
         - -4.8073830963713114e-02
         - -6.6854189867265690e-01
         - -2.2724104502772469e-01
         - -1.4104260341150537e-01
         - 3.2347732027591253e-02
         - -5.6163045773012665e-01
         - -2.7525679202954417e-01
         - -9.5922359319690856e-02
         - -6.7795364605750773e-03
         - 5.1474295665228031e-01
         - -3.5151390223599083e-01
         - -4.6224496748373384e-01
         - -4.5997205667036029e-01
         - 2.9686052303701849e-01
         - 1.3882294856508082e-01
         - -4.5615295344881734e-02
         - 1.7511028782549745e-01
         - 1.2314348903879449e-01
         - 1.7463701955559235e-01
         - -1.1833267781872835e-02
         - -3.4093850648528365e-02
         - -1.4956983056439496e-01
         - 1.8441691584285654e-02
         - -1.6220491841336571e-01
         - 7.4312500145037286e-01
         - -3.0601617125224823e-01
         - -8.1267593644968796e-03
         - -3.9654970658869824e-02
         - -3.4151872545677774e-02
         - -5.7156206646403240e-01
         - 1.2281430500981910e-01
         - 1.2800000027177730e-01
         - -3.2743234269813425e-02
         - 5.9524458119631007e-01
         - 2.0947919233224942e-02
         - 1.6185678756016841e-01
         - -1.7040989508866208e-01
         - 3.3304756999927571e-01
         - -1.8151647987662450e-01
         - 1.0632710722681095e-01
         - -3.0482936347549394e-01
         - -2.8992183975335256e-01
         - -2.3891768439130517e-01
         - -5.2746757402081701e-01
         - -9.6780847850085938e-01
         - 1.0169096112134064e+00
         - -2.6933252503710681e-01
         - -2.7225467544895303e+00
         - -7.5817626785610839e-02
         - 5.5781816500367787e-01
         - 3.1737121169294715e+00
         - 1.5554706527483317e+00
         - 3.6667637592811808e-01
         - 7.6294933321616826e-02
         - 8.7198367368427152e-03
         - 8.8312723489880077e-02
         - -7.6502816757968073e-01
         - -1.3596305713206233e-01
         - -3.6939991508567589e-02
         - 9.5805157235614757e-01
         - 2.6019345786395172e+00
         - -2.3181047103746741e-01
         - 1.4482063439952311e+00
         - -7.5072417434484329e-01
         - 5.8644389061242577e-03
         - 1.0521489350067501e+00
         - -7.2625312937898601e-01
         - 1.7477725298517319e+00
         - 2.9735084838386455e-01
         - -9.0235427713400651e-02
         - 5.7491891764598294e-03
         - 5.3429196286408698e-01
         - 3.6017824067978077e-01
         - -1.5777594592098085e-01
         - 5.7485698514866151e-02
         - 7.0745579888164278e-01
